{"learner":{"attributes":{"best_iteration":"10","best_score":"0.8042273571907225"},"feature_names":[],"feature_types":[],"gradient_booster":{"model":{"cats":{"enc":[],"feature_segments":[],"sorted_idx":[]},"gbtree_model_param":{"num_parallel_tree":"1","num_trees":"61"},"iteration_indptr":[0,1,2,3,4,5,6,7,8,9,10,11,12,13,14,15,16,17,18,19,20,21,22,23,24,25,26,27,28,29,30,31,32,33,34,35,36,37,38,39,40,41,42,43,44,45,46,47,48,49,50,51,52,53,54,55,56,57,58,59,60,61],"tree_info":[0,0,0,0,0,0,0,0,0,0,0,0,0,0,0,0,0,0,0,0,0,0,0,0,0,0,0,0,0,0,0,0,0,0,0,0,0,0,0,0,0,0,0,0,0,0,0,0,0,0,0,0,0,0,0,0,0,0,0,0,0],"trees":[{"base_weights":[9.438338E-1,6.390654E-2,1.0149155E0,-8.3665645E-1,2.737693E-1,8.183804E-1,1.0627427E0,-2.0083263E0,-6.6367316E-1,3.5636085E-1,-2.7678925E-1,8.5720766E-1,5.24225E-1,9.711859E-1,1.0862398E0,-1.8420198E0,-7.7244276E-1,-6.2975943E-1,-6.2998934E0,2.053158E-1,5.739504E-1,-3.8562485E-3,-6.424892E-1,7.19769E-1,9.0282106E-1,7.495726E-2,6.6142E-1,8.0677485E-1,9.9800795E-1,1.0388584E0,1.1036314E0,-3.7245872E0,-1.4744619E0,-1.076757E0,-2.3997137E-1,-7.725649E-1,-1.6378859E0,3.013638E-1,-5.895304E-1,-5.1216686E-1,5.963632E-1,-3.52275E-1,4.807859E-1,-7.698297E-1,-6.052938E-1,5.988211E-1,8.4844244E-1,9.3618107E-1,8.0837965E-1,2.750186E-1,-8.942463E-1,7.512518E-1,3.364722E-1,6.343081E-1,9.385335E-1,8.771978E-1,1.0093267E0,1.0119047E0,1.0664657E0,1.1036798E0,-7.45124E-1,-5.7720464E-1,-1.14273645E-1,-9.380793E-2,-2.3029988E-1,-9.334151E-2,-2.1691015E-1,1.9374022E-2,-6.448347E-2,-7.6073414E-1,1.05068915E-1,4.6182122E-2,1.0757278E-2,-3.4944434E-2,-1.1615926E-1,-7.6815814E-1,-3.0114561E-2,5.9821088E-2,-7.5904006E-1,-3.2352492E-2,-7.669622E-1,-7.551993E-1,4.968914E-2,-1.6614373E-1,-3.649613E-2,6.477172E-2,-6.330091E-2,-7.4974054E-1,8.4970675E-2,8.128219E-2,9.553578E-2,5.5718947E-2,9.350326E-2,-7.645895E-1,2.8985E-2,-1.0668418E-2,-1.699013E-1,6.332834E-2,8.47394E-2,-9.391899E-2,4.600505E-2,7.4717276E-2,2.0790605E-2,9.484907E-2,-9.8212555E-2,9.205016E-2,7.395709E-2,9.782321E-2,1.03320435E-1,1.06352784E-1,9.181139E-2,1.0665464E-1,-6.8658423E-1,1.08224265E-1,1.1200978E-1],"categories":[],"categories_nodes":[],"categories_segments":[],"categories_sizes":[],"default_left":[0,0,0,0,0,0,0,0,0,0,0,0,0,0,0,0,0,0,0,0,0,0,0,0,0,0,0,0,0,0,0,0,0,0,0,0,0,0,0,0,0,0,0,0,0,0,0,0,0,0,0,0,0,0,0,0,0,0,0,0,0,0,0,0,0,0,0,0,0,0,0,0,0,0,0,0,0,0,0,0,0,0,0,0,0,0,0,0,0,0,0,0,0,0,0,0,0,0,0,0,0,0,0,0,0,0,0,0,0,0,0,0,0,0,0],"id":0,"left_children":[1,3,5,7,9,11,13,15,17,19,21,23,25,27,29,31,-1,33,35,37,39,41,43,45,47,49,51,53,55,57,59,61,63,65,67,-1,69,71,73,75,77,79,81,-1,83,85,87,89,91,93,95,97,99,101,103,105,107,109,111,113,-1,-1,-1,-1,-1,-1,-1,-1,-1,-1,-1,-1,-1,-1,-1,-1,-1,-1,-1,-1,-1,-1,-1,-1,-1,-1,-1,-1,-1,-1,-1,-1,-1,-1,-1,-1,-1,-1,-1,-1,-1,-1,-1,-1,-1,-1,-1,-1,-1,-1,-1,-1,-1,-1,-1],"loss_changes":[6.84921E5,1.5468895E5,9.5238E4,3.1350664E4,3.0183879E4,2.2648625E4,1.753E4,1.8902586E4,2.5760387E4,1.897025E4,8.64265E3,1.0981875E4,1.4252848E4,7.33825E3,5.342E3,1.3375531E4,0E0,2.3344398E4,5.3452715E3,2.6010557E4,5.7575312E3,8.37298E3,9.707285E3,6.7931562E3,4.143125E3,1.04895E4,5.170672E3,5.303875E3,1.95575E3,1.294625E3,1.9725E3,1.6688477E4,7.1888203E3,9.77032E3,1.2568006E4,0E0,3.0582205E3,9.452014E3,5.0444844E3,7.232835E3,3.5097344E3,6.066204E3,2.6867603E3,0E0,9.343456E3,1.3554055E4,2.2380938E3,2.298625E3,1.09225625E4,5.2700684E3,5.8663643E3,1.5734375E3,6.0487573E3,4.8653906E3,2.531664E3,7.298594E2,9.7025E2,4.264875E3,5.57E2,1.668E3,0E0,0E0,0E0,0E0,0E0,0E0,0E0,0E0,0E0,0E0,0E0,0E0,0E0,0E0,0E0,0E0,0E0,0E0,0E0,0E0,0E0,0E0,0E0,0E0,0E0,0E0,0E0,0E0,0E0,0E0,0E0,0E0,0E0,0E0,0E0,0E0,0E0,0E0,0E0,0E0,0E0,0E0,0E0,0E0,0E0,0E0,0E0,0E0,0E0,0E0,0E0,0E0,0E0,0E0,0E0],"parents":[2147483647,0,0,1,1,2,2,3,3,4,4,5,5,6,6,7,7,8,8,9,9,10,10,11,11,12,12,13,13,14,14,15,15,17,17,18,18,19,19,20,20,21,21,22,22,23,23,24,24,25,25,26,26,27,27,28,28,29,29,30,30,31,31,32,32,33,33,34,34,36,36,37,37,38,38,39,39,40,40,41,41,42,42,44,44,45,45,46,46,47,47,48,48,49,49,50,50,51,51,52,52,53,53,54,54,55,55,56,56,57,57,58,58,59,59],"right_children":[2,4,6,8,10,12,14,16,18,20,22,24,26,28,30,32,-1,34,36,38,40,42,44,46,48,50,52,54,56,58,60,62,64,66,68,-1,70,72,74,76,78,80,82,-1,84,86,88,90,92,94,96,98,100,102,104,106,108,110,112,114,-1,-1,-1,-1,-1,-1,-1,-1,-1,-1,-1,-1,-1,-1,-1,-1,-1,-1,-1,-1,-1,-1,-1,-1,-1,-1,-1,-1,-1,-1,-1,-1,-1,-1,-1,-1,-1,-1,-1,-1,-1,-1,-1,-1,-1,-1,-1,-1,-1,-1,-1,-1,-1,-1,-1],"split_conditions":[-4.6488446E-1,-8.311479E-1,1.4396904E-1,-1.0547113E0,9.933531E-1,8.7187296E-1,3.3867422E-2,-7.040008E-1,1.6680648E0,-5.676858E-1,-5.340112E-1,-2.8413108E-1,1.934063E-1,4.130249E-1,8.0990255E-1,-1.173628E0,-7.7244276E-1,-1.5419088E-1,-6.137923E-1,-3.6719614E-1,-1.013871E0,-6.361245E-1,-9.717612E-1,-3.3292106E-1,3.896217E-2,2.2028285E-1,1.6789343E0,-7.723844E-2,-6.692583E-2,-1.3892114E-2,2.57019E0,4.509367E-1,-1.2012713E0,7.3578763E-1,-1.0562147E0,-7.725649E-1,1.8586833E0,-7.4434316E-1,-1.64117E-1,-1.0120872E0,3.1042612E0,1.4920242E-1,-1.0703384E0,-7.698297E-1,-6.599079E-1,1.04237616E-1,-8.570177E-1,-3.9561793E-1,-9.058327E-2,-1.0703384E0,-6.304971E-1,-2.6463258E-1,4.395306E-1,8.3677316E-1,9.7410876E-1,7.8600335E-1,-7.723844E-2,-7.496966E-1,2.7682452E0,1.2556188E0,-7.45124E-1,-5.7720464E-1,-1.14273645E-1,-9.380793E-2,-2.3029988E-1,-9.334151E-2,-2.1691015E-1,1.9374022E-2,-6.448347E-2,-7.6073414E-1,1.05068915E-1,4.6182122E-2,1.0757278E-2,-3.4944434E-2,-1.1615926E-1,-7.6815814E-1,-3.0114561E-2,5.9821088E-2,-7.5904006E-1,-3.2352492E-2,-7.669622E-1,-7.551993E-1,4.968914E-2,-1.6614373E-1,-3.649613E-2,6.477172E-2,-6.330091E-2,-7.4974054E-1,8.4970675E-2,8.128219E-2,9.553578E-2,5.5718947E-2,9.350326E-2,-7.645895E-1,2.8985E-2,-1.0668418E-2,-1.699013E-1,6.332834E-2,8.47394E-2,-9.391899E-2,4.600505E-2,7.4717276E-2,2.0790605E-2,9.484907E-2,-9.8212555E-2,9.205016E-2,7.395709E-2,9.782321E-2,1.03320435E-1,1.06352784E-1,9.181139E-2,1.0665464E-1,-6.8658423E-1,1.08224265E-1,1.1200978E-1],"split_indices":[2,2,2,2,6,6,10,3,4,3,0,2,3,3,2,2,0,7,0,0,7,2,7,3,0,0,6,7,9,7,6,7,0,4,0,0,7,0,0,9,7,1,7,0,2,0,1,10,3,7,7,10,3,0,6,0,7,7,3,10,0,0,0,0,0,0,0,0,0,0,0,0,0,0,0,0,0,0,0,0,0,0,0,0,0,0,0,0,0,0,0,0,0,0,0,0,0,0,0,0,0,0,0,0,0,0,0,0,0,0,0,0,0,0,0],"split_type":[0,0,0,0,0,0,0,0,0,0,0,0,0,0,0,0,0,0,0,0,0,0,0,0,0,0,0,0,0,0,0,0,0,0,0,0,0,0,0,0,0,0,0,0,0,0,0,0,0,0,0,0,0,0,0,0,0,0,0,0,0,0,0,0,0,0,0,0,0,0,0,0,0,0,0,0,0,0,0,0,0,0,0,0,0,0,0,0,0,0,0,0,0,0,0,0,0,0,0,0,0,0,0,0,0,0,0,0,0,0,0,0,0,0,0],"sum_hessian":[1.0950542E7,8.184811E5,1.013206E7,1.5468669E5,6.6379444E5,1.983076E6,8.1489845E6,1.9898348E4,1.3478833E5,5.7720575E5,8.658868E4,1.7518389E6,2.312372E5,1.6642521E6,6.484732E6,1.9337068E4,5.612781E2,1.3398325E5,8.050804E2,3.4070153E5,2.3650427E5,4.9583797E4,3.7004887E4,4.3653222E5,1.3153066E6,5.4095164E4,1.7714205E5,2.3342958E5,1.4308225E6,1.7411688E6,4.7435635E6,3.1572168E3,1.6179853E4,6.2410707E4,7.157255E4,6.160271E2,1.8905327E2,3.0397078E5,3.673074E4,4.781309E3,2.3172295E5,2.8846066E4,2.073773E4,1.9297165E2,3.6811914E4,2.250241E5,2.1150814E5,9.7196544E5,3.433412E5,4.484007E4,9.255094E3,1.387761E5,3.8365945E4,1.0109983E5,1.3232975E5,1.22578016E5,1.3082445E6,8.810313E5,8.601374E5,4.7435375E6,2.5967009E1,1.7601486E3,1.3970682E3,9.822828E3,6.357024E3,5.517259E4,7.2381196E3,3.455542E4,3.701712E4,5.8138527E1,1.3091475E2,1.6628595E5,1.3768483E5,2.5873586E4,1.0857153E4,1.3569485E2,4.645614E3,2.316716E5,5.1359528E1,2.8734213E4,1.1185347E2,4.055909E1,2.0697172E4,6.822865E3,2.9989049E4,2.1643348E5,8.590604E3,3.1137432E1,2.11477E5,1.3077353E5,8.411919E5,1.150897E5,2.282515E5,8.284165E1,4.4757227E4,4.678118E3,4.576976E3,6.23181E4,7.645799E4,3.3878262E3,3.4978117E4,7.9939766E4,2.1160062E4,1.3164777E5,6.819888E2,9.3236016E4,2.9342002E4,5.6826325E5,7.399813E5,5.682517E5,3.1277962E5,8.601295E5,7.8705316E0,2.0573211E6,2.6862165E6],"tree_param":{"num_deleted":"0","num_feature":"14","num_nodes":"115","size_leaf_vector":"1"}},{"base_weights":[9.158746E-1,8.2090236E-2,9.9241227E-1,-6.485353E-1,2.7246407E-1,7.924914E-1,1.0407163E0,-1.0108958E0,-3.086445E-1,3.5382435E-1,-2.9530483E-1,8.228153E-1,3.921423E-1,9.7987837E-1,1.0691307E0,-7.890142E-1,-1.9568319E0,-2.308907E-1,-1.9812844E0,2.3954737E-1,6.103328E-1,2.1330187E-2,-5.395532E-1,6.973261E-1,8.748954E-1,-1.3093369E-1,5.080179E-1,9.989647E-1,8.811724E-1,1.0755509E0,1.0057685E0,-3.3674183E0,-7.263641E-1,-3.2527936E0,-1.6533453E0,-9.413825E-1,-1.2866762E-1,-5.280466E0,-1.4377885E0,3.2734603E-1,-3.6101657E-1,-1.4385961E-1,6.543247E-1,4.3013833E-2,-6.8622613E0,-1.2559614E0,-3.060886E-1,7.8685117E-1,5.465527E-1,9.146667E-1,7.7322745E-1,1.6900906E-1,-1.3933582E0,6.055688E-1,1.5441689E-1,9.588038E-1,1.0226505E0,6.8720275E-1,9.393298E-1,1.051718E0,1.0891306E0,5.6459033E-1,1.013457E0,-3.9505443E-1,2.6524274E-2,-1.7275216E-1,-6.2789135E-2,-6.556425E-1,-2.542573E-1,-1.4147753E-1,-2.905132E-1,-5.5350125E-2,-3.1772274E-1,6.948424E-3,-7.37354E-2,-6.16644E-1,-4.1097036E-1,-8.1085615E-2,-4.4980678E-1,1.7811248E-2,5.2458104E-2,-3.4790974E-2,-7.584158E-1,-7.308119E-1,-5.3871884E-3,4.721882E-2,7.341048E-2,-2.366735E-2,5.732555E-2,-5.596915E-1,-7.798101E-1,-1.06924295E-1,-6.694737E-1,-4.5309505E-1,-2.7568048E-2,8.391429E-2,6.4419225E-2,2.6485508E-2,7.77274E-2,8.652368E-2,9.528733E-2,5.8794793E-2,9.262905E-2,-5.763373E-1,2.0098025E-2,-1.07384615E-1,-4.44905E-1,6.085198E-2,-7.870881E-1,-9.888313E-2,2.7912384E-2,9.839898E-2,8.792075E-2,1.06859244E-1,1.0103476E-1,-1.10276476E-1,7.106405E-2,9.400331E-2,-6.922335E-1,1.0622167E-1,9.849805E-2,1.0895862E-1,8.648344E-2,7.2654665E-2,-4.1349927E-1,1.0209467E-1,8.501399E-2],"categories":[],"categories_nodes":[],"categories_segments":[],"categories_sizes":[],"default_left":[0,0,0,0,0,0,0,0,0,0,0,0,0,0,0,0,0,0,0,0,0,0,0,0,0,0,0,0,0,0,0,0,0,0,0,0,0,0,0,0,0,0,0,0,0,0,0,0,0,0,0,0,0,0,0,0,0,0,0,0,0,0,0,0,0,0,0,0,0,0,0,0,0,0,0,0,0,0,0,0,0,0,0,0,0,0,0,0,0,0,0,0,0,0,0,0,0,0,0,0,0,0,0,0,0,0,0,0,0,0,0,0,0,0,0,0,0,0,0,0,0,0,0,0,0,0,0],"id":1,"left_children":[1,3,5,7,9,11,13,15,17,19,21,23,25,27,29,31,33,35,37,39,41,43,45,47,49,51,53,55,57,59,61,63,65,67,69,71,73,75,77,79,81,83,85,87,89,91,93,95,97,99,101,103,105,107,109,111,113,115,117,119,121,123,125,-1,-1,-1,-1,-1,-1,-1,-1,-1,-1,-1,-1,-1,-1,-1,-1,-1,-1,-1,-1,-1,-1,-1,-1,-1,-1,-1,-1,-1,-1,-1,-1,-1,-1,-1,-1,-1,-1,-1,-1,-1,-1,-1,-1,-1,-1,-1,-1,-1,-1,-1,-1,-1,-1,-1,-1,-1,-1,-1,-1,-1,-1,-1,-1],"loss_changes":[6.51507E5,1.19391805E5,9.0301E4,2.1852164E4,3.1455258E4,2.20905E4,1.30175E4,1.8022328E4,1.1906467E4,1.745843E4,6.6005947E3,1.1054375E4,7.7659297E3,4.5165E3,2.0875E3,1.1234156E4,6.4115117E3,6.3540063E3,7.284459E3,2.172595E4,6.090383E3,5.5479507E3,8.0582246E3,6.6962344E3,4.832875E3,8.798875E3,3.617963E3,1.910125E3,4.382E3,1.507E3,1.6015625E3,3.4958438E3,6.6940977E3,7.2444336E3,3.9443555E3,9.541418E3,9.225064E3,5.7089355E2,6.697857E3,1.0580801E4,4.972754E3,6.5225303E3,2.5199688E3,5.494968E3,9.456738E1,1.2018549E4,4.667401E3,2.3216094E3,1.2013027E4,1.6219375E3,9.5323125E3,3.5624094E3,4.3506865E3,2.0611719E3,3.2339482E3,1.493375E3,7.13125E2,3.7605586E3,1.659E3,1.1845E3,3.0275E2,6.162385E3,5.6696875E2,0E0,0E0,0E0,0E0,0E0,0E0,0E0,0E0,0E0,0E0,0E0,0E0,0E0,0E0,0E0,0E0,0E0,0E0,0E0,0E0,0E0,0E0,0E0,0E0,0E0,0E0,0E0,0E0,0E0,0E0,0E0,0E0,0E0,0E0,0E0,0E0,0E0,0E0,0E0,0E0,0E0,0E0,0E0,0E0,0E0,0E0,0E0,0E0,0E0,0E0,0E0,0E0,0E0,0E0,0E0,0E0,0E0,0E0,0E0,0E0,0E0,0E0,0E0,0E0],"parents":[2147483647,0,0,1,1,2,2,3,3,4,4,5,5,6,6,7,7,8,8,9,9,10,10,11,11,12,12,13,13,14,14,15,15,16,16,17,17,18,18,19,19,20,20,21,21,22,22,23,23,24,24,25,25,26,26,27,27,28,28,29,29,30,30,31,31,32,32,33,33,34,34,35,35,36,36,37,37,38,38,39,39,40,40,41,41,42,42,43,43,44,44,45,45,46,46,47,47,48,48,49,49,50,50,51,51,52,52,53,53,54,54,55,55,56,56,57,57,58,58,59,59,60,60,61,61,62,62],"right_children":[2,4,6,8,10,12,14,16,18,20,22,24,26,28,30,32,34,36,38,40,42,44,46,48,50,52,54,56,58,60,62,64,66,68,70,72,74,76,78,80,82,84,86,88,90,92,94,96,98,100,102,104,106,108,110,112,114,116,118,120,122,124,126,-1,-1,-1,-1,-1,-1,-1,-1,-1,-1,-1,-1,-1,-1,-1,-1,-1,-1,-1,-1,-1,-1,-1,-1,-1,-1,-1,-1,-1,-1,-1,-1,-1,-1,-1,-1,-1,-1,-1,-1,-1,-1,-1,-1,-1,-1,-1,-1,-1,-1,-1,-1,-1,-1,-1,-1,-1,-1,-1,-1,-1,-1,-1,-1],"split_conditions":[-4.458578E-1,-8.216346E-1,1.4396904E-1,-1.5419088E-1,1.0169634E0,1.1430829E0,8.3844256E-1,-5.337998E-1,1.2613442E0,-4.3137076E-1,-5.992866E-1,-2.4607773E-1,1.5554103E-1,7.207279E-1,7.1631473E-1,-1.173628E0,-1.1214901E0,-1.0547113E0,-9.643346E-1,-3.6719614E-1,-9.1287136E-1,-7.754371E-1,-6.4563787E-1,-3.1642637E-1,3.896217E-2,2.057772E-1,1.860308E0,3.7704578E-1,4.395306E-1,1.5281594E0,9.7721756E-1,-1.0199506E0,-1.0086664E0,-4.1444895E-1,-7.26801E-1,-1.1722599E0,-8.966525E-1,1.6680648E0,-8.241243E-1,-6.1709785E-1,7.625676E-1,-7.5028455E-1,-6.0282785E-1,-6.1709785E-1,-6.361245E-1,1.9007156E0,-9.739439E-1,8.698826E-2,-2.7612314E-1,-8.4351026E-2,-1.3892114E-2,-9.9148196E-1,6.917166E-1,1.6436465E0,4.395306E-1,3.0006394E-1,-2.24469E-2,-3.1540143E-1,2.7682452E0,1.2791957E0,3.3477747E0,1.9246973E0,2.0259197E0,-3.9505443E-1,2.6524274E-2,-1.7275216E-1,-6.2789135E-2,-6.556425E-1,-2.542573E-1,-1.4147753E-1,-2.905132E-1,-5.5350125E-2,-3.1772274E-1,6.948424E-3,-7.37354E-2,-6.16644E-1,-4.1097036E-1,-8.1085615E-2,-4.4980678E-1,1.7811248E-2,5.2458104E-2,-3.4790974E-2,-7.584158E-1,-7.308119E-1,-5.3871884E-3,4.721882E-2,7.341048E-2,-2.366735E-2,5.732555E-2,-5.596915E-1,-7.798101E-1,-1.06924295E-1,-6.694737E-1,-4.5309505E-1,-2.7568048E-2,8.391429E-2,6.4419225E-2,2.6485508E-2,7.77274E-2,8.652368E-2,9.528733E-2,5.8794793E-2,9.262905E-2,-5.763373E-1,2.0098025E-2,-1.07384615E-1,-4.44905E-1,6.085198E-2,-7.870881E-1,-9.888313E-2,2.7912384E-2,9.839898E-2,8.792075E-2,1.06859244E-1,1.0103476E-1,-1.10276476E-1,7.106405E-2,9.400331E-2,-6.922335E-1,1.0622167E-1,9.849805E-2,1.0895862E-1,8.648344E-2,7.2654665E-2,-4.1349927E-1,1.0209467E-1,8.501399E-2],"split_indices":[2,2,2,7,5,5,2,7,4,3,0,2,3,0,5,2,0,2,2,0,7,9,2,0,0,0,5,2,3,2,3,0,7,7,1,0,0,4,0,2,4,2,2,2,2,4,7,9,3,2,7,7,0,3,3,0,1,9,3,0,7,0,5,0,0,0,0,0,0,0,0,0,0,0,0,0,0,0,0,0,0,0,0,0,0,0,0,0,0,0,0,0,0,0,0,0,0,0,0,0,0,0,0,0,0,0,0,0,0,0,0,0,0,0,0,0,0,0,0,0,0,0,0,0,0,0,0],"split_type":[0,0,0,0,0,0,0,0,0,0,0,0,0,0,0,0,0,0,0,0,0,0,0,0,0,0,0,0,0,0,0,0,0,0,0,0,0,0,0,0,0,0,0,0,0,0,0,0,0,0,0,0,0,0,0,0,0,0,0,0,0,0,0,0,0,0,0,0,0,0,0,0,0,0,0,0,0,0,0,0,0,0,0,0,0,0,0,0,0,0,0,0,0,0,0,0,0,0,0,0,0,0,0,0,0,0,0,0,0,0,0,0,0,0,0,0,0,0,0,0,0,0,0,0,0,0,0],"sum_hessian":[1.0209185E7,8.583635E5,9.350822E6,1.7742628E5,6.809372E5,1.819652E6,7.5311695E6,8.587366E4,9.1552625E4,5.955905E5,8.534667E4,1.6915284E6,1.28123695E5,2.3976372E6,5.1335325E6,6.955943E4,1.6314233E4,8.7486875E4,4.0657488E3,4.120294E5,1.8356111E5,3.716639E4,4.8180285E4,4.9612034E5,1.195408E6,2.3235557E4,1.0488814E5,2.0091312E6,3.8850588E5,4.661209E6,4.7232356E5,1.6488114E3,6.791062E4,3.0936934E3,1.322054E4,1.1003046E4,7.648383E4,5.7381366E2,3.4919353E3,3.5947666E5,5.2552754E4,1.0116839E4,1.7344428E5,3.705067E4,1.1571765E2,1.1840923E4,3.633936E4,3.1128422E5,1.8483611E5,8.592653E5,3.361427E5,1.8775502E4,4.460054E3,8.220801E4,2.2680137E4,7.453596E5,1.2637716E6,8.961841E4,2.9888747E5,1.6919095E6,2.9692995E6,8.0914473E3,4.642321E5,1.420673E3,2.2813835E2,6.07997E3,6.1830645E4,5.4594916E2,2.5477441E3,1.110604E4,2.1144995E3,9.377463E3,1.6255835E3,5.770079E4,1.878304E4,3.2420477E2,2.4960887E2,2.8992554E3,5.926798E2,2.0464125E5,1.5483539E5,5.2458613E4,9.414115E1,1.2450268E2,9.992337E3,5.2833438E4,1.20610836E5,2.4256574E4,1.2794097E4,5.2165443E1,6.355221E1,1.1449062E4,3.9186093E2,2.5862308E2,3.608074E4,2.2778478E5,8.3499445E4,8.322512E4,1.0161099E5,3.7462144E5,4.8464388E5,1.5207005E5,1.8407264E5,9.9682846E1,1.867582E4,4.0390686E3,4.2098557E2,8.218032E4,2.7682173E1,2.2299739E3,2.0450162E4,5.661923E5,1.791673E5,2.6692288E5,9.968488E5,1.1576948E3,8.846071E4,2.988616E5,2.5853485E1,1.4619168E6,2.299927E5,2.9632778E6,6.021734E3,7.8227075E3,2.6873956E2,4.4387084E5,2.0361244E4],"tree_param":{"num_deleted":"0","num_feature":"14","num_nodes":"127","size_leaf_vector":"1"}},{"base_weights":[8.882957E-1,7.799643E-2,9.683866E-1,-5.640795E-1,2.5478688E-1,7.6800936E-1,1.020958E0,-4.8115188E-1,-2.0916831E0,3.421171E-1,-2.1678528E-1,8.083524E-1,4.079237E-1,9.150669E-1,1.0474262E0,-7.7379507E-1,-2.0330381E-1,-3.981098E0,-1.7522885E0,1.735104E-1,4.9475843E-1,-5.3489366E0,-2.0328759E-1,7.39153E-1,8.865692E-1,5.263186E-1,6.2240828E-2,7.2546893E-1,9.444494E-1,1.007132E0,1.0728016E0,-1.9431568E0,-7.167264E-1,-1.9216193E-1,-5.1027145E0,-3.0875313E0,-5.572899E0,-1.402425E0,-3.8166904E0,3.1027028E-1,-2.017961E-1,3.749261E-1,6.2620014E-1,-6.0561595E0,-3.50566E-1,-3.4421902E-2,-6.243393E-1,8.2870924E-1,5.59845E-1,8.077721E-1,9.310182E-1,-7.918765E-1,5.3775656E-1,-5.5617166E0,7.4866936E-2,5.2130073E-1,8.801179E-1,9.6381277E-1,8.428058E-1,9.815621E-1,1.0325366E0,1.0503752E0,1.0915555E0,-1.7297666E-1,-5.647986E-1,-6.5477744E-2,-1.8847005E-1,-7.2981395E-2,-9.820427E-3,-6.244148E-1,-3.9540407E-1,-3.7052736E-1,-8.369983E-2,-5.929746E-1,-3.6239636E-1,2.533926E-3,-1.8284915E-1,-4.9046007E-1,-3.6458924E-1,6.9118016E-3,4.6116784E-2,-7.6642536E-2,-3.1426002E-3,5.0553024E-2,8.231389E-3,7.4721836E-2,3.242321E-2,-7.3197114E-1,-5.284907E-1,-6.295386E-2,5.3516245E-3,-6.035627E-1,-5.6947727E-2,6.521279E-2,9.479617E-2,7.2062895E-2,-4.4294713E-5,5.22542E-2,9.024971E-2,9.6443556E-2,8.012213E-2,2.4794234E-2,6.1742064E-2,-3.4742728E-1,-8.0375177E-1,8.357702E-3,-7.871613E-1,5.960509E-2,9.365245E-3,8.8518634E-2,-6.9511056E-1,9.223195E-2,9.944602E-2,-8.186211E-1,8.4325336E-2,1.0313982E-1,8.992779E-2,1.0108582E-1,1.0561406E-1,1.05047286E-1,-4.3954918E-1,1.0915742E-1,-5.7775235E-1],"categories":[],"categories_nodes":[],"categories_segments":[],"categories_sizes":[],"default_left":[0,0,0,0,0,0,0,0,0,0,0,0,0,0,0,0,0,0,0,0,0,0,0,0,0,0,0,0,0,0,0,0,0,0,0,0,0,0,0,0,0,0,0,0,0,0,0,0,0,0,0,0,0,0,0,0,0,0,0,0,0,0,0,0,0,0,0,0,0,0,0,0,0,0,0,0,0,0,0,0,0,0,0,0,0,0,0,0,0,0,0,0,0,0,0,0,0,0,0,0,0,0,0,0,0,0,0,0,0,0,0,0,0,0,0,0,0,0,0,0,0,0,0],"id":2,"left_children":[1,3,5,7,9,11,13,15,17,19,21,23,25,27,29,31,33,35,37,39,41,43,45,47,49,51,53,55,57,59,61,63,65,67,69,71,73,75,77,79,81,83,85,87,-1,89,91,93,95,97,99,-1,101,103,105,107,109,111,113,115,117,119,121,-1,-1,-1,-1,-1,-1,-1,-1,-1,-1,-1,-1,-1,-1,-1,-1,-1,-1,-1,-1,-1,-1,-1,-1,-1,-1,-1,-1,-1,-1,-1,-1,-1,-1,-1,-1,-1,-1,-1,-1,-1,-1,-1,-1,-1,-1,-1,-1,-1,-1,-1,-1,-1,-1,-1,-1,-1,-1,-1,-1],"loss_changes":[6.165725E5,9.700731E4,9.1078E4,2.3372027E4,2.7596E4,2.6103875E4,1.91955E4,1.4229543E4,6.0849414E3,1.4550891E4,7.2519976E3,8.745625E3,7.4095996E3,7.629375E3,5.6015E3,5.6865156E3,4.8996045E3,2.0393145E3,5.8125293E3,1.3788777E4,4.6737266E3,3.3675635E2,7.425106E3,1.3767594E4,2.6559375E3,1.3030699E4,3.280237E3,5.8023594E3,2.333125E3,1.37425E3,1.413E3,3.125246E3,5.878914E3,4.524712E3,2.4232617E2,1.2874014E3,3.3916992E2,4.1910234E3,1.9891406E2,7.16492E3,6.901926E3,5.9322227E3,5.171203E3,1.5338525E2,0E0,3.9008625E3,8.871161E3,1.2040094E4,2.57275E4,7.391E3,2.1027188E3,0E0,3.1091992E3,5.0685938E2,3.1905154E3,2.5321035E3,4.156828E3,1.2658125E3,7.737031E2,4.3264375E3,5.42375E2,8.185E2,2.4175E2,0E0,0E0,0E0,0E0,0E0,0E0,0E0,0E0,0E0,0E0,0E0,0E0,0E0,0E0,0E0,0E0,0E0,0E0,0E0,0E0,0E0,0E0,0E0,0E0,0E0,0E0,0E0,0E0,0E0,0E0,0E0,0E0,0E0,0E0,0E0,0E0,0E0,0E0,0E0,0E0,0E0,0E0,0E0,0E0,0E0,0E0,0E0,0E0,0E0,0E0,0E0,0E0,0E0,0E0,0E0,0E0,0E0,0E0,0E0,0E0],"parents":[2147483647,0,0,1,1,2,2,3,3,4,4,5,5,6,6,7,7,8,8,9,9,10,10,11,11,12,12,13,13,14,14,15,15,16,16,17,17,18,18,19,19,20,20,21,21,22,22,23,23,24,24,25,25,26,26,27,27,28,28,29,29,30,30,31,31,32,32,33,33,34,34,35,35,36,36,37,37,38,38,39,39,40,40,41,41,42,42,43,43,45,45,46,46,47,47,48,48,49,49,50,50,52,52,53,53,54,54,55,55,56,56,57,57,58,58,59,59,60,60,61,61,62,62],"right_children":[2,4,6,8,10,12,14,16,18,20,22,24,26,28,30,32,34,36,38,40,42,44,46,48,50,52,54,56,58,60,62,64,66,68,70,72,74,76,78,80,82,84,86,88,-1,90,92,94,96,98,100,-1,102,104,106,108,110,112,114,116,118,120,122,-1,-1,-1,-1,-1,-1,-1,-1,-1,-1,-1,-1,-1,-1,-1,-1,-1,-1,-1,-1,-1,-1,-1,-1,-1,-1,-1,-1,-1,-1,-1,-1,-1,-1,-1,-1,-1,-1,-1,-1,-1,-1,-1,-1,-1,-1,-1,-1,-1,-1,-1,-1,-1,-1,-1,-1,-1,-1,-1,-1],"split_conditions":[-4.458578E-1,-8.216346E-1,1.6775239E-1,1.3067243E0,9.42425E-1,5.721585E-1,2.386543E-2,-1.5419088E-1,8.899146E-1,-6.7749506E-1,-1.0703384E0,-7.723844E-2,7.631497E-1,4.130249E-1,1.1095726E0,-1.5245706E0,-2.8288034E-1,-1.173628E0,1.860308E0,-7.623146E-1,-9.3717925E-2,-6.361245E-1,-2.8288034E-1,-7.496966E-1,-1.5874077E-1,-6.396298E-1,-1.0703384E0,-7.723844E-2,-4.1649997E-2,-1.3892114E-2,1.4053191E0,-7.040008E-1,-1.750092E-1,-1.0309279E0,1.5902339E0,4.509367E-1,-7.040008E-1,-9.1287136E-1,-7.040008E-1,-6.979612E-1,-9.236194E-1,-4.6851447E-1,7.880958E-1,-5.676858E-1,-3.50566E-1,-7.040008E-1,-1.3994565E0,3.248559E-1,2.8762072E-1,-3.0370194E-1,5.89221E-1,-7.918765E-1,-7.922369E-2,1.934063E-1,1.1158806E0,6.5823144E-1,1.3456385E0,-9.3717925E-2,4.2661462E-2,-7.496966E-1,8.174273E-1,2.57019E0,1.7367364E0,-1.7297666E-1,-5.647986E-1,-6.5477744E-2,-1.8847005E-1,-7.2981395E-2,-9.820427E-3,-6.244148E-1,-3.9540407E-1,-3.7052736E-1,-8.369983E-2,-5.929746E-1,-3.6239636E-1,2.533926E-3,-1.8284915E-1,-4.9046007E-1,-3.6458924E-1,6.9118016E-3,4.6116784E-2,-7.6642536E-2,-3.1426002E-3,5.0553024E-2,8.231389E-3,7.4721836E-2,3.242321E-2,-7.3197114E-1,-5.284907E-1,-6.295386E-2,5.3516245E-3,-6.035627E-1,-5.6947727E-2,6.521279E-2,9.479617E-2,7.2062895E-2,-4.4294713E-5,5.22542E-2,9.024971E-2,9.6443556E-2,8.012213E-2,2.4794234E-2,6.1742064E-2,-3.4742728E-1,-8.0375177E-1,8.357702E-3,-7.871613E-1,5.960509E-2,9.365245E-3,8.8518634E-2,-6.9511056E-1,9.223195E-2,9.944602E-2,-8.186211E-1,8.4325336E-2,1.0313982E-1,8.992779E-2,1.0108582E-1,1.0561406E-1,1.05047286E-1,-4.3954918E-1,1.0915742E-1,-5.7775235E-1],"split_indices":[2,2,2,8,8,8,10,7,6,3,7,7,8,3,2,9,1,2,5,1,7,2,1,7,3,3,7,7,8,7,10,3,9,2,5,7,3,7,3,2,3,9,8,3,0,3,9,10,9,10,6,0,3,3,8,1,5,7,1,7,10,6,5,0,0,0,0,0,0,0,0,0,0,0,0,0,0,0,0,0,0,0,0,0,0,0,0,0,0,0,0,0,0,0,0,0,0,0,0,0,0,0,0,0,0,0,0,0,0,0,0,0,0,0,0,0,0,0,0,0,0,0,0],"split_type":[0,0,0,0,0,0,0,0,0,0,0,0,0,0,0,0,0,0,0,0,0,0,0,0,0,0,0,0,0,0,0,0,0,0,0,0,0,0,0,0,0,0,0,0,0,0,0,0,0,0,0,0,0,0,0,0,0,0,0,0,0,0,0,0,0,0,0,0,0,0,0,0,0,0,0,0,0,0,0,0,0,0,0,0,0,0,0,0,0,0,0,0,0,0,0,0,0,0,0,0,0,0,0,0,0,0,0,0,0,0,0,0,0,0,0,0,0,0,0,0,0,0,0],"sum_hessian":[9.500689E6,8.545905E5,8.646098E6,1.8450269E5,6.700878E5,1.796956E6,6.849142E6,1.7500373E5,9.498957E3,5.653848E5,1.0470305E5,1.6159122E6,1.8104373E5,1.3696516E6,5.4794905E6,8.523173E4,8.9772E4,1.4448309E3,8.054126E3,2.686442E5,2.967406E5,2.7361276E2,1.0442944E5,8.5738456E5,7.585276E5,1.3485572E5,4.618802E4,1.8378169E5,1.1858699E6,2.117352E6,3.3621385E6,3.96449E3,8.1267234E4,8.956935E4,2.0265273E2,9.2725214E2,5.175788E2,6.888398E3,1.1657281E3,1.968963E5,7.174788E4,1.5522734E5,1.4151327E5,1.9609143E2,7.752134E1,7.453695E4,2.9892479E4,5.7179525E5,2.8558934E5,2.7357153E5,4.849561E5,1.8146579E2,1.3467425E5,1.0247797E2,4.608554E4,7.921115E4,1.0457055E5,9.9610156E5,1.8976838E5,1.0552596E6,1.0620924E6,1.5311712E6,1.8309672E6,3.7499668E3,2.1452327E2,7.717544E4,4.091803E3,1.3323249E4,7.62461E4,9.942175E1,1.0323097E2,7.2704205E2,2.002101E2,4.357508E2,8.1827965E1,1.5833787E3,5.305019E3,1.544203E2,1.0113078E3,7.578474E4,1.2111156E5,1.663008E4,5.51178E4,1.0732383E5,4.7903516E4,1.01024664E5,4.04886E4,7.110636E1,1.2498507E2,9.595276E3,6.494168E4,2.9892712E2,2.959355E4,2.3049692E5,3.4129834E5,2.2190867E5,6.368066E4,6.820456E4,2.0536698E5,3.8565866E5,9.929746E4,2.9038312E4,1.0563594E5,5.6903606E1,4.5574356E1,4.603607E4,4.9470356E1,6.742525E4,1.17858955E4,1.045038E5,6.674911E1,4.2318472E5,5.729168E5,8.498686E0,1.8975988E5,6.572062E5,3.980534E5,5.536483E5,5.0844406E5,1.5311446E6,2.66405E1,1.8309631E6,4.1487594E0],"tree_param":{"num_deleted":"0","num_feature":"14","num_nodes":"123","size_leaf_vector":"1"}},{"base_weights":[8.609898E-1,1.2281044E-1,9.514516E-1,-3.6748683E-1,3.0839807E-1,7.793968E-1,1.0087011E0,-2.601674E-1,-1.1685793E0,3.8870773E-1,-1.6558744E-1,8.1375843E-1,4.0913862E-1,9.006422E-1,1.0336659E0,-7.466061E-1,-1.7271128E-1,-9.558466E-1,-2.5573134E0,2.510973E-1,5.8614796E-1,-1.2310331E-1,-1.3889403E0,7.2106177E-1,8.661559E-1,-4.2032868E-1,4.5059097E-1,7.7499866E-1,9.3759423E-1,9.992586E-1,1.0603913E0,-1.0871408E0,-3.9951852E-1,2.665455E-1,-2.810532E-1,-1.8540156E0,-7.1751726E-1,-1.3242995E0,-3.2088246E0,3.6010653E-1,-1.0804786E-1,-5.777979E-1,6.0613716E-1,-9.21564E-1,-6.1335683E-2,-4.2326584E-1,-2.1931407E0,4.3863675E-1,8.35141E-1,7.6880425E-1,9.057972E-1,-2.935091E-1,-8.06042E0,5.424187E-1,7.03367E-2,6.078492E-1,8.986204E-1,9.4014186E-1,3.2311538E-1,9.748594E-1,1.0218363E0,1.035366E0,1.0792562E0,-7.852261E-2,-2.5389627E-1,-6.882833E-1,-3.701815E-2,2.7787477E-2,-7.696825E-1,-7.561596E-2,-1.867274E-2,-1.1813661E-1,-4.0272853E-1,-4.0872186E-2,-1.4150672E-1,4.6347886E-2,-2.4272914E-1,-1.3457389E-1,-3.517556E-1,-1.5409623E-2,4.0056776E-2,-1.1533661E-1,4.01369E-5,-7.299389E-1,-3.7921716E-2,6.8071134E-2,3.7254542E-2,-1.4708685E-2,-2.6733738E-1,9.121909E-4,-7.7254556E-2,-8.827704E-3,-6.5288335E-1,-3.1365114E-1,7.193675E-2,5.74865E-2,2.4355624E-2,7.220704E-2,9.025799E-2,7.694178E-2,-9.238389E-1,9.083667E-2,-2.690563E-2,-6.42548E-1,-2.031701E-2,-4.4701415E-1,-8.168643E-1,4.066972E-2,6.402567E-2,-1.884186E-1,9.751022E-3,6.344962E-2,-4.9966786E-2,8.995093E-2,-7.6036894E-1,9.553062E-2,8.408334E-2,-9.941618E-1,6.0251284E-2,1.0209608E-1,9.044924E-2,1.0001143E-1,1.046045E-1,1.0354444E-1,-3.289767E-1,-7.079332E-1,1.0792724E-1],"categories":[],"categories_nodes":[],"categories_segments":[],"categories_sizes":[],"default_left":[0,0,0,0,0,0,0,0,0,0,0,0,0,0,0,0,0,0,0,0,0,0,0,0,0,0,0,0,0,0,0,0,0,0,0,0,0,0,0,0,0,0,0,0,0,0,0,0,0,0,0,0,0,0,0,0,0,0,0,0,0,0,0,0,0,0,0,0,0,0,0,0,0,0,0,0,0,0,0,0,0,0,0,0,0,0,0,0,0,0,0,0,0,0,0,0,0,0,0,0,0,0,0,0,0,0,0,0,0,0,0,0,0,0,0,0,0,0,0,0,0,0,0,0,0,0,0],"id":3,"left_children":[1,3,5,7,9,11,13,15,17,19,21,23,25,27,29,31,33,35,37,39,41,43,45,47,49,51,53,55,57,59,61,63,65,67,69,71,73,75,77,79,81,83,85,87,89,91,93,95,97,99,101,103,105,107,109,111,113,115,117,119,121,123,125,-1,-1,-1,-1,-1,-1,-1,-1,-1,-1,-1,-1,-1,-1,-1,-1,-1,-1,-1,-1,-1,-1,-1,-1,-1,-1,-1,-1,-1,-1,-1,-1,-1,-1,-1,-1,-1,-1,-1,-1,-1,-1,-1,-1,-1,-1,-1,-1,-1,-1,-1,-1,-1,-1,-1,-1,-1,-1,-1,-1,-1,-1,-1,-1],"loss_changes":[5.90453E5,8.783482E4,7.75865E4,2.2787148E4,2.6654992E4,2.502E4,1.5944E4,9.943736E3,9.248363E3,1.6268664E4,5.272769E3,8.74E3,5.7426113E3,5.149125E3,4.4135E3,4.2096562E3,9.428747E3,5.8115156E3,3.3367031E3,1.3814361E4,5.722203E3,4.8357354E3,2.6433442E3,2.0938156E4,4.436125E3,7.700115E3,5.5541055E3,5.2083906E3,1.3414375E3,1.155375E3,1.2745E3,7.8786895E3,3.3529307E3,3.5386426E3,7.1220586E3,8.318936E3,4.6223945E3,2.8396985E3,1.5600254E3,5.63191E3,9.314283E3,5.540154E3,4.211461E3,9.551545E3,4.560626E3,3.1663408E3,5.106042E3,4.968996E3,3.5291562E3,2.0497969E3,2.4666875E3,4.331098E3,1.390625E1,1.7010391E3,1.6435272E3,3.1633555E3,1.1019297E3,1.2846875E3,1.0159632E4,3.2715625E3,5.7225E2,3.96875E2,2.1125E2,0E0,0E0,0E0,0E0,0E0,0E0,0E0,0E0,0E0,0E0,0E0,0E0,0E0,0E0,0E0,0E0,0E0,0E0,0E0,0E0,0E0,0E0,0E0,0E0,0E0,0E0,0E0,0E0,0E0,0E0,0E0,0E0,0E0,0E0,0E0,0E0,0E0,0E0,0E0,0E0,0E0,0E0,0E0,0E0,0E0,0E0,0E0,0E0,0E0,0E0,0E0,0E0,0E0,0E0,0E0,0E0,0E0,0E0,0E0,0E0,0E0,0E0,0E0,0E0],"parents":[2147483647,0,0,1,1,2,2,3,3,4,4,5,5,6,6,7,7,8,8,9,9,10,10,11,11,12,12,13,13,14,14,15,15,16,16,17,17,18,18,19,19,20,20,21,21,22,22,23,23,24,24,25,25,26,26,27,27,28,28,29,29,30,30,31,31,32,32,33,33,34,34,35,35,36,36,37,37,38,38,39,39,40,40,41,41,42,42,43,43,44,44,45,45,46,46,47,47,48,48,49,49,50,50,51,51,52,52,53,53,54,54,55,55,56,56,57,57,58,58,59,59,60,60,61,61,62,62],"right_children":[2,4,6,8,10,12,14,16,18,20,22,24,26,28,30,32,34,36,38,40,42,44,46,48,50,52,54,56,58,60,62,64,66,68,70,72,74,76,78,80,82,84,86,88,90,92,94,96,98,100,102,104,106,108,110,112,114,116,118,120,122,124,126,-1,-1,-1,-1,-1,-1,-1,-1,-1,-1,-1,-1,-1,-1,-1,-1,-1,-1,-1,-1,-1,-1,-1,-1,-1,-1,-1,-1,-1,-1,-1,-1,-1,-1,-1,-1,-1,-1,-1,-1,-1,-1,-1,-1,-1,-1,-1,-1,-1,-1,-1,-1,-1,-1,-1,-1,-1,-1,-1,-1,-1,-1,-1,-1],"split_conditions":[-3.9353445E-1,-7.6455456E-1,3.0093908E-1,1.2136269E0,9.030839E-1,5.377773E-1,2.6621055E-3,-9.928746E-1,1.3652812E0,-4.768091E-1,1.1705949E0,-4.6084296E-2,-2.874827E-1,7.386663E-1,1.318866E0,1.14523254E-1,-1.2239921E0,-6.1776173E-1,-8.990641E-1,-6.320979E-1,-1.013871E0,-8.324938E-1,-3.1247506E-1,-1.360216E-1,-1.2716104E-1,6.0581774E-1,7.631497E-1,-9.3717925E-2,3.3477747E0,-1.3892114E-2,1.4053191E0,-4.5035762E-1,2.7669117E-1,2.4441955E0,-8.2896805E-1,-7.915536E-1,1.3762128E0,-9.1287136E-1,2.2529475E-1,-8.3580565E-1,-8.7818104E-1,-6.361245E-1,7.754674E-1,-6.0245574E-1,6.633723E-2,-1.7560677E-1,6.3455564E-1,-2.473667E-1,-1.3892114E-2,8.8634086E-1,4.043028E0,-9.739439E-1,-6.396298E-1,2.994291E-1,-9.6638185E-1,1.1257707E0,2.0259197E0,1.3762128E0,-6.860486E-1,-7.496966E-1,8.772867E-1,2.5991902E0,-7.165063E-2,-7.852261E-2,-2.5389627E-1,-6.882833E-1,-3.701815E-2,2.7787477E-2,-7.696825E-1,-7.561596E-2,-1.867274E-2,-1.1813661E-1,-4.0272853E-1,-4.0872186E-2,-1.4150672E-1,4.6347886E-2,-2.4272914E-1,-1.3457389E-1,-3.517556E-1,-1.5409623E-2,4.0056776E-2,-1.1533661E-1,4.01369E-5,-7.299389E-1,-3.7921716E-2,6.8071134E-2,3.7254542E-2,-1.4708685E-2,-2.6733738E-1,9.121909E-4,-7.7254556E-2,-8.827704E-3,-6.5288335E-1,-3.1365114E-1,7.193675E-2,5.74865E-2,2.4355624E-2,7.220704E-2,9.025799E-2,7.694178E-2,-9.238389E-1,9.083667E-2,-2.690563E-2,-6.42548E-1,-2.031701E-2,-4.4701415E-1,-8.168643E-1,4.066972E-2,6.402567E-2,-1.884186E-1,9.751022E-3,6.344962E-2,-4.9966786E-2,8.995093E-2,-7.6036894E-1,9.553062E-2,8.408334E-2,-9.941618E-1,6.0251284E-2,1.0209608E-1,9.044924E-2,1.0001143E-1,1.046045E-1,1.0354444E-1,-3.289767E-1,-7.079332E-1,1.0792724E-1],"split_indices":[2,2,2,8,8,8,10,2,8,3,8,10,3,3,2,7,1,7,10,1,7,7,1,3,2,7,8,7,7,7,10,7,8,7,5,7,5,7,4,10,3,2,8,10,1,10,1,1,7,3,10,7,3,3,7,4,5,5,10,7,10,5,3,0,0,0,0,0,0,0,0,0,0,0,0,0,0,0,0,0,0,0,0,0,0,0,0,0,0,0,0,0,0,0,0,0,0,0,0,0,0,0,0,0,0,0,0,0,0,0,0,0,0,0,0,0,0,0,0,0,0,0,0,0,0,0,0],"split_type":[0,0,0,0,0,0,0,0,0,0,0,0,0,0,0,0,0,0,0,0,0,0,0,0,0,0,0,0,0,0,0,0,0,0,0,0,0,0,0,0,0,0,0,0,0,0,0,0,0,0,0,0,0,0,0,0,0,0,0,0,0,0,0,0,0,0,0,0,0,0,0,0,0,0,0,0,0,0,0,0,0,0,0,0,0,0,0,0,0,0,0,0,0,0,0,0,0,0,0,0,0,0,0,0,0,0,0,0,0,0,0,0,0,0,0,0,0,0,0,0,0,0,0,0,0,0,0],"sum_hessian":[8.842162E6,9.652887E5,7.876873E6,2.650532E5,7.002355E5,1.9665925E6,5.9102805E6,2.3374108E5,3.1312121E4,5.9878125E5,1.0145422E5,1.7995819E6,1.6701058E5,1.1091974E6,4.801083E6,3.5618766E4,1.9812231E5,2.7154203E4,4.157917E3,3.52854E5,2.4592727E5,9.8050266E4,3.4039514E3,6.49884E5,1.1496979E6,7.9486094E3,1.5906197E5,2.5208498E5,8.571123E5,2.0989098E6,2.7021735E6,1.7978027E4,1.7640738E4,3.919803E4,1.5892428E5,5.69295E3,2.1461254E4,1.4385082E3,2.7194087E3,2.706923E5,8.2161664E4,4.1516895E3,2.4177558E5,7.039378E3,9.101088E4,1.54739E3,1.8565613E3,1.8698114E5,4.6290288E5,3.3269053E5,8.170074E5,7.819844E3,1.2876494E2,1.2812144E5,3.0940531E4,1.07176766E5,1.4490822E5,8.5357294E5,3.5393948E3,1.00878456E6,1.0901251E6,1.161472E6,1.5407016E6,1.4884292E4,3.0937344E3,7.8412476E1,1.7562324E4,3.9143305E4,5.4723003E1,2.6324463E4,1.3259981E5,4.3485674E3,1.344383E3,1.4877002E4,6.5842515E3,5.490932E2,8.89415E2,3.8733484E2,2.332074E3,1.974605E4,2.5094627E5,7.721941E3,7.443973E4,1.18110466E2,4.033579E3,1.8326598E5,5.850959E4,4.882086E3,2.157292E3,8.280829E4,8.2026E3,1.4678683E3,7.952178E1,1.4022812E3,4.5428012E2,1.1009668E5,7.688445E4,1.7294616E5,2.8995672E5,3.3267106E5,1.9473186E1,8.152246E5,1.7826976E3,1.1251475E2,7.7073296E3,5.0057244E0,1.2375921E2,5.367218E4,7.444926E4,4.233273E2,3.0517203E4,1.0465908E5,2.5176877E3,1.4489397E5,1.42529545E1,7.4049144E5,1.130815E5,9.287022E1,3.4465244E3,6.094721E5,3.9931247E5,5.7459444E5,5.1553062E5,1.1614518E6,2.0280117E1,2.1909218E0,1.5406994E6],"tree_param":{"num_deleted":"0","num_feature":"14","num_nodes":"127","size_leaf_vector":"1"}},{"base_weights":[8.3445066E-1,1.1626965E-1,9.287705E-1,-4.364758E-1,2.585146E-1,7.478242E-1,9.89881E-1,-3.1881106E-1,-1.0604147E0,5.972061E-2,4.0659615E-1,7.9081154E-1,5.130859E-1,8.755568E-1,1.0163732E0,-7.5626266E-1,-1.5340322E-1,-9.680656E-1,-3.5422592E0,3.184733E-1,-2.0685945E-1,5.235522E-1,1.1157539E-1,6.738348E-1,8.3930725E-1,5.3885758E-2,6.25518E-1,7.481308E-1,9.1402537E-1,9.724823E-1,1.0407028E0,-1.123149E0,-3.1921563E-1,2.2095713E-1,-3.1839338E-1,-2.8645315E0,-8.564278E-1,-3.2030863E-1,-4.177804E0,1.07786E-1,4.8790196E-1,-1.8535352E-1,-2.8720517E0,-2.4030362E-1,5.4436463E-1,-2.1647398E-1,3.266255E-1,5.771302E-1,7.882046E-1,7.4823934E-1,8.790584E-1,2.5500768E-1,-6.46971E-1,7.438445E-1,4.5239538E-1,5.8925194E-1,8.7191236E-1,9.312615E-1,8.165493E-1,9.456107E-1,9.984466E-1,1.0149071E0,1.062899E0,-8.629433E-2,-2.3739026E-1,-1.7477617E-2,-3.3655575E-1,-3.890649E-3,4.533249E-2,-1.5797208E-1,-2.169885E-2,2.9422352E-2,-4.5581624E-1,-1.76232E-1,-6.9966905E-2,-5.9692556E-1,1.122627E-1,-5.133913E-1,-2.9741243E-1,2.0277098E-2,-4.401647E-2,5.9054E-2,2.3491813E-2,-4.9366E-2,-2.9175824E-3,-8.4603466E-2,-3.8309607E-1,-2.3319833E-1,-6.6404934E-3,5.510777E-2,-8.340174E-2,9.76211E-3,-4.3335952E-2,5.7653423E-2,-9.908446E-3,6.493028E-2,-8.665435E-3,6.895541E-2,8.909933E-2,4.093849E-2,8.494427E-2,9.200191E-2,7.927139E-2,-5.2713794E-1,2.8084612E-2,-9.0986216E-1,-6.1774578E-2,-1.1218321E-1,7.491606E-2,1.418697E-2,5.8697756E-2,7.225372E-2,3.5330575E-2,-5.9137285E-1,8.7301664E-2,9.347883E-2,4.673093E-2,1.5267829E-2,8.416572E-2,9.985682E-2,8.63312E-2,9.9858746E-2,-6.6378653E-1,9.7594865E-2,1.02346316E-1,1.0439755E-1,1.07081786E-1],"categories":[],"categories_nodes":[],"categories_segments":[],"categories_sizes":[],"default_left":[0,0,0,0,0,0,0,0,0,0,0,0,0,0,0,0,0,0,0,0,0,0,0,0,0,0,0,0,0,0,0,0,0,0,0,0,0,0,0,0,0,0,0,0,0,0,0,0,0,0,0,0,0,0,0,0,0,0,0,0,0,0,0,0,0,0,0,0,0,0,0,0,0,0,0,0,0,0,0,0,0,0,0,0,0,0,0,0,0,0,0,0,0,0,0,0,0,0,0,0,0,0,0,0,0,0,0,0,0,0,0,0,0,0,0,0,0,0,0,0,0,0,0,0,0,0,0],"id":4,"left_children":[1,3,5,7,9,11,13,15,17,19,21,23,25,27,29,31,33,35,37,39,41,43,45,47,49,51,53,55,57,59,61,63,65,67,69,71,73,75,77,79,81,83,85,87,89,91,93,95,97,99,101,103,105,107,109,111,113,115,117,119,121,123,125,-1,-1,-1,-1,-1,-1,-1,-1,-1,-1,-1,-1,-1,-1,-1,-1,-1,-1,-1,-1,-1,-1,-1,-1,-1,-1,-1,-1,-1,-1,-1,-1,-1,-1,-1,-1,-1,-1,-1,-1,-1,-1,-1,-1,-1,-1,-1,-1,-1,-1,-1,-1,-1,-1,-1,-1,-1,-1,-1,-1,-1,-1,-1,-1],"loss_changes":[5.58724E5,7.528402E4,8.06185E4,1.438723E4,2.2417684E4,1.8573125E4,1.6506E4,1.1930395E4,7.123047E3,2.2424848E4,1.5058773E4,8.8249375E3,1.470925E4,5.0254375E3,4.7235E3,7.2535215E3,7.3899844E3,6.34467E3,2.2820361E3,5.8888613E3,9.177606E3,4.968703E3,8.740837E3,5.042422E3,3.980625E3,7.8991245E3,4.688008E3,4.6755156E3,1.3224375E3,1.100125E3,1.62875E3,8.001832E3,9.084227E3,2.2100918E3,1.0621482E4,8.915279E3,4.019545E3,1.5130312E3,1.0565107E3,3.82732E3,2.3741406E3,7.648587E3,2.486789E3,3.0153572E3,2.8156406E3,3.3422083E3,7.962165E3,1.1835984E4,2.1176094E3,1.1460219E4,2.707E3,6.219168E3,3.0807896E3,1.3491953E3,3.883211E3,3.2743047E3,1.0065625E3,1.094625E3,1.9725156E3,3.3789375E3,8.695625E2,4.37875E2,2.28125E2,0E0,0E0,0E0,0E0,0E0,0E0,0E0,0E0,0E0,0E0,0E0,0E0,0E0,0E0,0E0,0E0,0E0,0E0,0E0,0E0,0E0,0E0,0E0,0E0,0E0,0E0,0E0,0E0,0E0,0E0,0E0,0E0,0E0,0E0,0E0,0E0,0E0,0E0,0E0,0E0,0E0,0E0,0E0,0E0,0E0,0E0,0E0,0E0,0E0,0E0,0E0,0E0,0E0,0E0,0E0,0E0,0E0,0E0,0E0,0E0,0E0,0E0,0E0,0E0],"parents":[2147483647,0,0,1,1,2,2,3,3,4,4,5,5,6,6,7,7,8,8,9,9,10,10,11,11,12,12,13,13,14,14,15,15,16,16,17,17,18,18,19,19,20,20,21,21,22,22,23,23,24,24,25,25,26,26,27,27,28,28,29,29,30,30,31,31,32,32,33,33,34,34,35,35,36,36,37,37,38,38,39,39,40,40,41,41,42,42,43,43,44,44,45,45,46,46,47,47,48,48,49,49,50,50,51,51,52,52,53,53,54,54,55,55,56,56,57,57,58,58,59,59,60,60,61,61,62,62],"right_children":[2,4,6,8,10,12,14,16,18,20,22,24,26,28,30,32,34,36,38,40,42,44,46,48,50,52,54,56,58,60,62,64,66,68,70,72,74,76,78,80,82,84,86,88,90,92,94,96,98,100,102,104,106,108,110,112,114,116,118,120,122,124,126,-1,-1,-1,-1,-1,-1,-1,-1,-1,-1,-1,-1,-1,-1,-1,-1,-1,-1,-1,-1,-1,-1,-1,-1,-1,-1,-1,-1,-1,-1,-1,-1,-1,-1,-1,-1,-1,-1,-1,-1,-1,-1,-1,-1,-1,-1,-1,-1,-1,-1,-1,-1,-1,-1,-1,-1,-1,-1,-1,-1,-1,-1,-1,-1],"split_conditions":[-3.9353445E-1,-8.216346E-1,3.0093908E-1,-8.023658E-1,-6.0282785E-1,7.1631473E-1,-5.917476E-3,-1.0119013E0,-4.722865E-1,-7.4434316E-1,-3.526905E-1,-1.6997105E-1,1.934063E-1,7.386663E-1,1.1095726E0,1.14523254E-1,-1.2239921E0,-9.2453897E-1,4.500624E-1,-2.4161406E-1,2.1431215E0,-1.0086664E0,-4.654495E-1,-9.3717925E-2,-4.6084296E-2,2.7105263E-1,1.2628328E0,-9.3717925E-2,1.3176119E0,-1.3892114E-2,1.4053191E0,-3.9323914E-1,-1.0344563E0,2.385113E-1,-9.780184E-1,-1.0851237E0,-1.034586E0,4.360491E-1,1.6832311E0,-5.502109E-1,9.5374364E-1,-7.122312E-1,-6.5730923E-1,-5.6953114E-1,2.0259197E0,-2.3664527E-1,9.6218413E-1,9.950863E-3,-1.5874077E-1,-1.360216E-1,4.4756094E-1,-1.0202819E0,7.3160195E-1,-1.0851237E0,6.5157616E-1,8.3677316E-1,-6.6767585E-1,3.1042612E0,9.9236363E-1,-7.496966E-1,2.1793995E0,-6.480693E-1,1.8135595E0,-8.629433E-2,-2.3739026E-1,-1.7477617E-2,-3.3655575E-1,-3.890649E-3,4.533249E-2,-1.5797208E-1,-2.169885E-2,2.9422352E-2,-4.5581624E-1,-1.76232E-1,-6.9966905E-2,-5.9692556E-1,1.122627E-1,-5.133913E-1,-2.9741243E-1,2.0277098E-2,-4.401647E-2,5.9054E-2,2.3491813E-2,-4.9366E-2,-2.9175824E-3,-8.4603466E-2,-3.8309607E-1,-2.3319833E-1,-6.6404934E-3,5.510777E-2,-8.340174E-2,9.76211E-3,-4.3335952E-2,5.7653423E-2,-9.908446E-3,6.493028E-2,-8.665435E-3,6.895541E-2,8.909933E-2,4.093849E-2,8.494427E-2,9.200191E-2,7.927139E-2,-5.2713794E-1,2.8084612E-2,-9.0986216E-1,-6.1774578E-2,-1.1218321E-1,7.491606E-2,1.418697E-2,5.8697756E-2,7.225372E-2,3.5330575E-2,-5.9137285E-1,8.7301664E-2,9.347883E-2,4.673093E-2,1.5267829E-2,8.416572E-2,9.985682E-2,8.63312E-2,9.9858746E-2,-6.6378653E-1,9.7594865E-2,1.02346316E-1,1.0439755E-1,1.07081786E-1],"split_indices":[2,2,2,0,2,5,10,2,1,0,0,2,3,3,2,7,1,7,5,7,5,7,3,7,10,0,5,7,5,7,10,7,0,10,5,7,1,5,5,7,7,2,0,2,5,0,5,0,3,3,9,7,5,7,3,0,9,7,3,7,1,5,2,0,0,0,0,0,0,0,0,0,0,0,0,0,0,0,0,0,0,0,0,0,0,0,0,0,0,0,0,0,0,0,0,0,0,0,0,0,0,0,0,0,0,0,0,0,0,0,0,0,0,0,0,0,0,0,0,0,0,0,0,0,0,0,0],"split_type":[0,0,0,0,0,0,0,0,0,0,0,0,0,0,0,0,0,0,0,0,0,0,0,0,0,0,0,0,0,0,0,0,0,0,0,0,0,0,0,0,0,0,0,0,0,0,0,0,0,0,0,0,0,0,0,0,0,0,0,0,0,0,0,0,0,0,0,0,0,0,0,0,0,0,0,0,0,0,0,0,0,0,0,0,0,0,0,0,0,0,0,0,0,0,0,0,0,0,0,0,0,0,0,0,0,0,0,0,0,0,0,0,0,0,0,0,0,0,0,0,0,0,0,0,0,0,0],"sum_hessian":[8.248224E6,9.57502E5,7.290722E6,1.9597327E5,7.6152875E5,1.8406449E6,5.450077E6,1.648809E5,3.1092348E4,3.2509803E5,4.3643072E5,1.5557416E6,2.8490325E5,1.02534625E6,4.4247305E6,4.5237754E4,1.1964316E5,2.9978252E4,1.1140962E3,1.6497088E5,1.6012717E5,3.125319E5,1.2389882E5,4.559523E5,1.0997894E6,5.603682E4,2.2886644E5,2.3776756E5,7.8757875E5,1.5780142E6,2.8467165E6,2.4592012E4,2.0645744E4,3.6599367E4,8.304379E4,1.6652299E3,2.8313021E4,1.8380157E2,9.302946E2,7.3533E4,9.143787E4,1.5884648E5,1.2806926E3,8.289287E3,3.042426E5,4.9059984E4,7.4838836E4,2.470592E5,2.088931E5,3.3419222E5,7.655972E5,4.35423E4,1.2494518E4,1.3594617E5,9.292026E4,1.0412478E5,1.3364277E5,6.692333E5,1.183454E5,7.754768E5,8.0253744E5,1.3166261E6,1.5300904E6,2.0358363E4,4.2336475E3,1.9712168E4,9.3357666E2,1.7277865E4,1.9321504E4,6.1784463E3,7.686534E4,5.815045E2,1.0837253E3,4.175134E3,2.4137887E4,3.675858E1,1.47043E2,5.166461E2,4.1364853E2,6.267004E4,1.0862962E4,6.5046516E4,2.6391354E4,5.3409652E4,1.0543683E5,4.120278E2,8.6866473E2,6.353071E2,7.6539795E3,3.0276866E5,1.4739438E3,2.0039375E4,2.902061E4,4.7156016E4,2.768282E4,2.2283103E5,2.4228174E4,1.0659608E5,1.02297016E5,7.6857766E4,2.5733444E5,5.1925878E5,2.4633839E5,2.0168839E2,4.3340613E4,4.19869E1,1.245253E4,3.856722E2,1.355605E5,2.8095854E4,6.4824406E4,6.6536484E4,3.7588297E4,2.0873558E1,1.336219E5,6.641834E5,5.04992E3,4.313027E3,1.1403237E5,4.7184394E5,3.0363288E5,8.025235E5,1.3928867E1,2.3710592E5,1.0795202E6,4.5143788E5,1.0786525E6],"tree_param":{"num_deleted":"0","num_feature":"14","num_nodes":"127","size_leaf_vector":"1"}},{"base_weights":[8.0833256E-1,1.5889524E-1,9.147721E-1,-2.1617433E-1,3.478537E-1,7.48336E-1,9.7520506E-1,-1.1175657E-1,-6.6561496E-1,3.9760655E-1,-1.9284847E-1,7.7799594E-1,3.6034042E-1,8.643803E-1,1.0046048E0,-2.9930058E-1,8.038462E-2,-5.727066E-1,-1.9250609E0,2.7339774E-1,5.5610764E-1,-1.0727246E-1,-1.1393042E0,6.7327166E-1,8.343133E-1,-3.3232443E-2,4.4707683E-1,7.5694895E-1,9.0172654E-1,9.662676E-1,1.0322707E0,-1.3637024E0,-2.3044914E-1,2.4852347E-1,-1.9790569E-1,-5.5454504E-1,-4.3902097E0,-3.7268814E-1,-2.2574153E0,3.694361E-1,-6.224022E-2,6.2027997E-1,2.5147364E-1,-6.9308043E0,-9.815594E-2,-3.0502606E-2,-2.061367E0,3.9376703E-1,7.7996856E-1,8.3736E-1,-2.9543877E-1,1.3181782E-1,-1.5335865E0,5.173434E-1,-5.904461E-2,6.098031E-1,8.7137693E-1,9.156937E-1,7.859063E-1,9.3918574E-1,9.9118686E-1,1.0067611E0,1.0562016E0,-1.12718545E-1,-3.929553E-1,-2.2475405E-2,-6.3518065E-1,2.551416E-2,-6.355338E-1,-3.568068E-2,4.120872E-2,-3.2736782E-2,-8.233197E-2,-4.644025E-1,-3.126448E-1,8.457227E-2,-2.8681347E-1,-1.4393741E-1,-2.6887557E-1,2.4216773E-2,5.561315E-2,-1.9886452E-1,-2.628688E-3,4.743908E-2,7.513117E-2,-8.1443053E-1,2.5697468E-2,-3.8676414E-1,-7.2321886E-1,4.3453165E-5,-7.334989E-2,-6.2765694E-1,1.6623503E-2,-2.913414E-1,-6.263337E-2,5.5953562E-2,1.6551672E-2,6.6745E-2,8.508523E-2,7.544921E-2,8.706557E-2,-1.4679263E-2,-1.0370067E0,9.57905E-2,2.8676013E-3,-1.0375899E-1,-6.316562E-1,-3.944007E-2,5.429379E-2,-5.2081984E-1,-2.2695037E-3,6.2707484E-2,-9.072553E-2,8.734266E-2,-7.299574E-1,9.1951095E-2,4.3295752E-2,7.873284E-2,-8.143844E-1,9.912717E-2,8.597766E-2,9.668256E-2,1.01585485E-1,9.595733E-2,1.01559035E-1,1.0449149E-1,1.06795505E-1],"categories":[],"categories_nodes":[],"categories_segments":[],"categories_sizes":[],"default_left":[0,0,0,0,0,0,0,0,0,0,0,0,0,0,0,0,0,0,0,0,0,0,0,0,0,0,0,0,0,0,0,0,0,0,0,0,0,0,0,0,0,0,0,0,0,0,0,0,0,0,0,0,0,0,0,0,0,0,0,0,0,0,0,0,0,0,0,0,0,0,0,0,0,0,0,0,0,0,0,0,0,0,0,0,0,0,0,0,0,0,0,0,0,0,0,0,0,0,0,0,0,0,0,0,0,0,0,0,0,0,0,0,0,0,0,0,0,0,0,0,0,0,0,0,0,0,0],"id":5,"left_children":[1,3,5,7,9,11,13,15,17,19,21,23,25,27,29,31,33,35,37,39,41,43,45,47,49,51,53,55,57,59,61,63,65,67,69,71,73,75,77,79,81,83,85,87,89,91,93,95,97,99,101,103,105,107,109,111,113,115,117,119,121,123,125,-1,-1,-1,-1,-1,-1,-1,-1,-1,-1,-1,-1,-1,-1,-1,-1,-1,-1,-1,-1,-1,-1,-1,-1,-1,-1,-1,-1,-1,-1,-1,-1,-1,-1,-1,-1,-1,-1,-1,-1,-1,-1,-1,-1,-1,-1,-1,-1,-1,-1,-1,-1,-1,-1,-1,-1,-1,-1,-1,-1,-1,-1,-1,-1],"loss_changes":[5.32553E5,7.688703E4,6.65765E4,1.705634E4,1.9407234E4,2.029075E4,1.58215E4,1.062774E4,8.0165938E3,1.3005797E4,4.9233804E3,9.660125E3,4.274587E3,4.08425E3,4.06925E3,1.0937549E4,6.816594E3,4.421877E3,2.4276602E3,1.1938992E4,5.6738906E3,3.4672964E3,5.153247E3,1.708275E4,3.6666875E3,5.600025E3,3.6490312E3,4.421672E3,1.2214375E3,1.084625E3,1.36E3,5.498371E3,4.885611E3,3.9705903E3,5.3184106E3,3.8777832E3,8.2353516E1,2.529755E3,1.3640527E3,6.842418E3,5.7072236E3,4.5826016E3,2.334672E3,4.068506E1,3.4874578E3,2.8144863E3,3.363041E3,5.9878945E3,3.3059219E3,2.9304375E3,4.2899434E3,1.7358484E3,5.310279E3,2.1026855E3,2.3412551E3,3.011129E3,2.480711E3,1.241875E3,1.0389336E3,3.18775E3,5.025E2,4.485E2,1.51625E2,0E0,0E0,0E0,0E0,0E0,0E0,0E0,0E0,0E0,0E0,0E0,0E0,0E0,0E0,0E0,0E0,0E0,0E0,0E0,0E0,0E0,0E0,0E0,0E0,0E0,0E0,0E0,0E0,0E0,0E0,0E0,0E0,0E0,0E0,0E0,0E0,0E0,0E0,0E0,0E0,0E0,0E0,0E0,0E0,0E0,0E0,0E0,0E0,0E0,0E0,0E0,0E0,0E0,0E0,0E0,0E0,0E0,0E0,0E0,0E0,0E0,0E0,0E0,0E0],"parents":[2147483647,0,0,1,1,2,2,3,3,4,4,5,5,6,6,7,7,8,8,9,9,10,10,11,11,12,12,13,13,14,14,15,15,16,16,17,17,18,18,19,19,20,20,21,21,22,22,23,23,24,24,25,25,26,26,27,27,28,28,29,29,30,30,31,31,32,32,33,33,34,34,35,35,36,36,37,37,38,38,39,39,40,40,41,41,42,42,43,43,44,44,45,45,46,46,47,47,48,48,49,49,50,50,51,51,52,52,53,53,54,54,55,55,56,56,57,57,58,58,59,59,60,60,61,61,62,62],"right_children":[2,4,6,8,10,12,14,16,18,20,22,24,26,28,30,32,34,36,38,40,42,44,46,48,50,52,54,56,58,60,62,64,66,68,70,72,74,76,78,80,82,84,86,88,90,92,94,96,98,100,102,104,106,108,110,112,114,116,118,120,122,124,126,-1,-1,-1,-1,-1,-1,-1,-1,-1,-1,-1,-1,-1,-1,-1,-1,-1,-1,-1,-1,-1,-1,-1,-1,-1,-1,-1,-1,-1,-1,-1,-1,-1,-1,-1,-1,-1,-1,-1,-1,-1,-1,-1,-1,-1,-1,-1,-1,-1,-1,-1,-1,-1,-1,-1,-1,-1,-1,-1,-1,-1,-1,-1,-1],"split_conditions":[-3.3169776E-1,-7.0271784E-1,3.6277577E-1,1.1334368E0,9.293609E-1,5.262669E-1,8.432084E-2,-1.5419088E-1,1.3652812E0,-4.200112E-1,-9.0580076E-1,-4.6084296E-2,6.4664364E-2,8.2575643E-1,1.318866E0,-1.4348006E0,7.712736E-1,-9.938787E-1,-9.322645E-1,-5.492327E-1,9.086789E-1,4.7803056E-1,-5.123156E-1,-1.0194286E-1,4.043028E0,1.1893731E0,7.880958E-1,-9.3717925E-2,1.4743059E0,-1.3892114E-2,1.5838686E0,8.773967E-1,1.5554103E-1,1.3416841E0,2.0601642E0,-8.0966616E-1,1.4920242E-1,-9.8905647E-1,7.240714E-1,-5.076945E-1,-9.7284424E-1,-1.3892114E-2,6.855752E-1,-1.003298E0,2.0259197E0,-6.694212E-1,7.2352016E-1,-2.059341E-1,-1.3892114E-2,-8.4351026E-2,4.1945197E-2,-1.7815955E0,-8.0691034E-1,-9.367067E-1,-9.6638185E-1,1.3132304E0,1.6680648E0,3.1042612E0,7.0234585E-1,-7.496966E-1,8.772867E-1,-7.181357E-1,2.497141E0,-1.12718545E-1,-3.929553E-1,-2.2475405E-2,-6.3518065E-1,2.551416E-2,-6.355338E-1,-3.568068E-2,4.120872E-2,-3.2736782E-2,-8.233197E-2,-4.644025E-1,-3.126448E-1,8.457227E-2,-2.8681347E-1,-1.4393741E-1,-2.6887557E-1,2.4216773E-2,5.561315E-2,-1.9886452E-1,-2.628688E-3,4.743908E-2,7.513117E-2,-8.1443053E-1,2.5697468E-2,-3.8676414E-1,-7.2321886E-1,4.3453165E-5,-7.334989E-2,-6.2765694E-1,1.6623503E-2,-2.913414E-1,-6.263337E-2,5.5953562E-2,1.6551672E-2,6.6745E-2,8.508523E-2,7.544921E-2,8.706557E-2,-1.4679263E-2,-1.0370067E0,9.57905E-2,2.8676013E-3,-1.0375899E-1,-6.316562E-1,-3.944007E-2,5.429379E-2,-5.2081984E-1,-2.2695037E-3,6.2707484E-2,-9.072553E-2,8.734266E-2,-7.299574E-1,9.1951095E-2,4.3295752E-2,7.873284E-2,-8.143844E-1,9.912717E-2,8.597766E-2,9.668256E-2,1.01585485E-1,9.595733E-2,1.01559035E-1,1.0449149E-1,1.06795505E-1],"split_indices":[2,2,2,8,8,8,10,7,8,3,9,10,3,3,2,3,7,9,7,1,5,4,7,3,10,4,8,7,5,7,10,8,3,4,7,1,1,10,4,2,3,7,4,7,5,2,3,1,7,2,3,10,9,7,7,4,4,7,8,7,10,5,10,0,0,0,0,0,0,0,0,0,0,0,0,0,0,0,0,0,0,0,0,0,0,0,0,0,0,0,0,0,0,0,0,0,0,0,0,0,0,0,0,0,0,0,0,0,0,0,0,0,0,0,0,0,0,0,0,0,0,0,0,0,0,0,0],"split_type":[0,0,0,0,0,0,0,0,0,0,0,0,0,0,0,0,0,0,0,0,0,0,0,0,0,0,0,0,0,0,0,0,0,0,0,0,0,0,0,0,0,0,0,0,0,0,0,0,0,0,0,0,0,0,0,0,0,0,0,0,0,0,0,0,0,0,0,0,0,0,0,0,0,0,0,0,0,0,0,0,0,0,0,0,0,0,0,0,0,0,0,0,0,0,0,0,0,0,0,0,0,0,0,0,0,0,0,0,0,0,0,0,0,0,0,0,0,0,0,0,0,0,0,0,0,0,0],"sum_hessian":[7.7040995E6,1.0848611E6,6.6192385E6,3.6344584E5,7.2141525E5,1.763224E6,4.8560145E6,2.949272E5,6.851867E4,6.606277E5,6.0787555E4,1.6380072E6,1.2521679E5,1.01812644E6,3.837888E6,1.4924878E5,1.456784E5,6.3812715E4,4.705962E3,3.7038197E5,2.9024572E5,5.5748074E4,5.039479E3,5.728267E5,1.0651805E6,2.261232E4,1.0260447E5,2.6263738E5,7.55489E5,1.6087056E6,2.2291825E6,9.066553E3,1.4018222E5,9.081154E4,5.486687E4,6.3511707E4,3.0100754E2,8.302273E2,3.8757344E3,2.8798016E5,8.240181E4,2.397421E5,5.0503633E4,7.336935E1,5.5674707E4,2.2885178E3,2.7509614E3,1.5825758E5,4.145691E5,1.0623159E6,2.8646497E3,2.0372145E4,2.2401772E3,9.009609E4,1.2508373E4,1.1489601E5,1.4774138E5,6.741807E5,8.130832E4,7.709196E5,8.37786E5,1.079025E6,1.1501574E6,8.302663E3,7.638899E2,1.4005295E5,1.2926395E2,9.072158E4,8.995594E1,4.3528305E4,1.1338564E4,3.4420543E4,2.9091164E4,2.484365E2,5.2571037E1,5.582976E2,2.7192972E2,1.3395682E3,2.5361663E3,1.7124586E5,1.167343E5,1.5087294E3,8.089308E4,1.13441836E5,1.2630025E5,3.210027E1,5.047153E4,7.8112764E0,6.5558075E1,4.81967E4,7.478008E3,6.893857E1,2.219579E3,1.7254503E3,1.0255112E3,9.1675836E4,6.658174E4,1.6023208E5,2.5433702E5,3.0449584E5,7.5782006E5,2.8239976E3,4.0652107E1,2.2603306E3,1.8111812E4,2.0307993E3,2.0937782E2,2.4597222E3,8.763637E4,8.6684395E1,1.2421688E4,1.1360322E5,1.2927903E3,1.4770522E5,3.615839E1,6.688906E5,5.2901084E3,8.129629E4,1.2034599E1,4.655471E5,3.0537253E5,4.2153453E5,4.1625147E5,1.700889E5,9.089361E5,5.867746E5,5.6338275E5],"tree_param":{"num_deleted":"0","num_feature":"14","num_nodes":"127","size_leaf_vector":"1"}},{"base_weights":[7.820906E-1,1.7190816E-1,8.980054E-1,-9.112157E-2,3.9744666E-1,7.338055E-1,9.6000695E-1,-1.1224119E-2,-5.8594555E-1,5.0043726E-1,1.2432965E-1,7.6181287E-1,3.6406878E-1,9.013192E-1,9.927187E-1,7.255223E-2,-3.41232E-1,-3.9899402E0,-5.642758E-1,-3.5557516E-2,5.195582E-1,2.2651361E-1,-3.1952986E-1,6.96886E-1,8.3411896E-1,5.156929E-1,1.0618807E-1,9.285539E-1,7.9350376E-1,1.0007641E0,9.0501344E-1,-2.9681587E-1,2.0726448E-1,-2.5980244E0,-3.0268228E-1,-2.2511442E-1,-4.226655E0,-4.6280137E-1,-1.318536E0,2.9293564E-3,-7.4556413E0,5.443354E-1,1.3253467E-1,-4.599212E-2,5.3256065E-1,-6.423947E0,-3.0011648E-1,7.9939246E-1,4.9330148E-1,8.531631E-1,7.0001525E-1,-5.745584E0,5.2178466E-1,1.284765E-1,-7.719725E0,8.9726037E-1,9.590443E-1,6.95601E-1,8.863046E-1,9.768034E-1,1.0163461E0,9.1466326E-1,7.091233E-1,-9.769438E-3,-5.9223976E-2,-2.1613827E-2,2.8918503E-2,-1.2454802E-1,-7.5620687E-1,-2.692709E-2,-1.837946E-1,-4.394079E-1,-2.955913E-1,-3.8158275E-2,-1.3986044E-1,2.8687367E-2,-1.571744E-1,2.4741604E-3,-5.1402503E-1,-8.446065E-1,-3.3177084E-1,4.127663E-2,6.065767E-2,1.448554E-2,-6.601855E-1,2.9323667E-3,-1.0791482E-1,2.0428078E-2,7.5002044E-2,-2.9523087E-1,-6.958603E-1,3.8565453E-2,-4.7474045E-2,8.268929E-2,9.422314E-3,7.194377E-3,6.545635E-2,8.656169E-2,6.568403E-2,-9.180299E-1,7.006628E-2,-6.370414E-1,-2.517219E-1,5.5560973E-2,9.872773E-3,-2.9843165E-2,4.4364464E-2,-2.690441E-1,-8.0640346E-1,9.2554666E-2,8.425839E-2,9.5914096E-2,-9.280006E-1,7.397469E-2,1.8504266E-2,8.894997E-2,-7.932406E-2,9.827779E-2,7.569776E-2,1.0170734E-1,4.1941058E-2,5.0478186E-2,9.187143E-2,9.115916E-2,5.4513592E-2],"categories":[],"categories_nodes":[],"categories_segments":[],"categories_sizes":[],"default_left":[0,0,0,0,0,0,0,0,0,0,0,0,0,0,0,0,0,0,0,0,0,0,0,0,0,0,0,0,0,0,0,0,0,0,0,0,0,0,0,0,0,0,0,0,0,0,0,0,0,0,0,0,0,0,0,0,0,0,0,0,0,0,0,0,0,0,0,0,0,0,0,0,0,0,0,0,0,0,0,0,0,0,0,0,0,0,0,0,0,0,0,0,0,0,0,0,0,0,0,0,0,0,0,0,0,0,0,0,0,0,0,0,0,0,0,0,0,0,0,0,0,0,0,0,0],"id":6,"left_children":[1,3,5,7,9,11,13,15,17,19,21,23,25,27,29,31,33,35,37,39,41,43,45,47,49,51,53,55,57,59,61,63,65,67,69,-1,71,73,75,77,79,81,83,85,87,89,91,93,95,97,99,101,103,105,107,109,111,113,115,117,119,121,123,-1,-1,-1,-1,-1,-1,-1,-1,-1,-1,-1,-1,-1,-1,-1,-1,-1,-1,-1,-1,-1,-1,-1,-1,-1,-1,-1,-1,-1,-1,-1,-1,-1,-1,-1,-1,-1,-1,-1,-1,-1,-1,-1,-1,-1,-1,-1,-1,-1,-1,-1,-1,-1,-1,-1,-1,-1,-1,-1,-1,-1,-1],"loss_changes":[5.09307E5,6.8194766E4,6.16045E4,2.0979973E4,1.740804E4,1.7175625E4,8.43225E3,1.2631716E4,5.4395E3,4.605883E3,7.6864595E3,7.23775E3,4.566787E3,4.6155E3,1.98925E3,1.8131557E4,8.047009E3,1.824961E2,5.610201E3,4.420962E3,4.1610234E3,1.1488914E4,3.7564507E3,1.6953E4,1.862375E3,2.8084004E3,7.544367E3,1.19675E3,2.8799062E3,9.635E2,4.4735938E2,5.7284297E3,9.261409E3,1.0420673E4,4.6649277E3,0E0,7.412549E1,4.910585E3,3.53392E3,1.7279799E3,2.9936182E2,3.3394062E3,2.1673657E3,5.670472E3,4.631867E3,1.6597852E2,3.7861218E3,1.0478094E4,1.8486234E4,1.5611875E3,5.8685156E2,1.2834033E2,1.0514395E3,5.802463E3,1.9100732E2,9.5715625E2,6.383125E2,3.4773594E3,8.741172E2,1.3363125E3,6.7925E2,3.7457812E2,3.690918E2,0E0,0E0,0E0,0E0,0E0,0E0,0E0,0E0,0E0,0E0,0E0,0E0,0E0,0E0,0E0,0E0,0E0,0E0,0E0,0E0,0E0,0E0,0E0,0E0,0E0,0E0,0E0,0E0,0E0,0E0,0E0,0E0,0E0,0E0,0E0,0E0,0E0,0E0,0E0,0E0,0E0,0E0,0E0,0E0,0E0,0E0,0E0,0E0,0E0,0E0,0E0,0E0,0E0,0E0,0E0,0E0,0E0,0E0,0E0,0E0,0E0,0E0],"parents":[2147483647,0,0,1,1,2,2,3,3,4,4,5,5,6,6,7,7,8,8,9,9,10,10,11,11,12,12,13,13,14,14,15,15,16,16,17,17,18,18,19,19,20,20,21,21,22,22,23,23,24,24,25,25,26,26,27,27,28,28,29,29,30,30,31,31,32,32,33,33,34,34,36,36,37,37,38,38,39,39,40,40,41,41,42,42,43,43,44,44,45,45,46,46,47,47,48,48,49,49,50,50,51,51,52,52,53,53,54,54,55,55,56,56,57,57,58,58,59,59,60,60,61,61,62,62],"right_children":[2,4,6,8,10,12,14,16,18,20,22,24,26,28,30,32,34,36,38,40,42,44,46,48,50,52,54,56,58,60,62,64,66,68,70,-1,72,74,76,78,80,82,84,86,88,90,92,94,96,98,100,102,104,106,108,110,112,114,116,118,120,122,124,-1,-1,-1,-1,-1,-1,-1,-1,-1,-1,-1,-1,-1,-1,-1,-1,-1,-1,-1,-1,-1,-1,-1,-1,-1,-1,-1,-1,-1,-1,-1,-1,-1,-1,-1,-1,-1,-1,-1,-1,-1,-1,-1,-1,-1,-1,-1,-1,-1,-1,-1,-1,-1,-1,-1,-1,-1,-1,-1,-1,-1,-1],"split_conditions":[-2.9364443E-1,-6.0282785E-1,4.008291E-1,1.1334368E0,-2.8741506E-1,5.0392896E-1,1.1095726E0,-5.992866E-1,-1.0703384E0,-1.003298E0,1.0590031E0,-6.272843E-2,1.259961E-1,8.6578447E-1,7.1631473E-1,-8.7395793E-1,-1.3780339E0,-1.173628E0,-6.428036E-1,-3.0917352E-1,8.8995975E-1,-1.3892114E-2,7.759576E-1,-7.496966E-1,3.1925347E-1,-1.098247E0,9.42425E-1,7.004992E-1,-1.3892114E-2,1.8135595E0,2.0259197E0,-1.0562147E0,-8.470872E-1,-9.5763975E-1,1.4002652E0,-2.2511442E-1,1.6320262E0,1.3652812E0,-9.165019E-1,1.7287819E-1,9.933531E-1,-7.879553E-1,7.115019E-1,2.2028285E-1,-1.8225834E-1,-9.739439E-1,-7.9717493E-1,5.6116575E-1,-5.5822545E-1,2.3552341E0,-1.2284465E-1,7.631497E-1,7.880958E-1,6.227178E-1,-9.6638185E-1,4.1610917E-1,3.7257797E-1,1.5910672E0,3.3477747E0,2.0044782E0,3.3477747E0,-1.0558E0,-4.6389243E-1,-9.769438E-3,-5.9223976E-2,-2.1613827E-2,2.8918503E-2,-1.2454802E-1,-7.5620687E-1,-2.692709E-2,-1.837946E-1,-4.394079E-1,-2.955913E-1,-3.8158275E-2,-1.3986044E-1,2.8687367E-2,-1.571744E-1,2.4741604E-3,-5.1402503E-1,-8.446065E-1,-3.3177084E-1,4.127663E-2,6.065767E-2,1.448554E-2,-6.601855E-1,2.9323667E-3,-1.0791482E-1,2.0428078E-2,7.5002044E-2,-2.9523087E-1,-6.958603E-1,3.8565453E-2,-4.7474045E-2,8.268929E-2,9.422314E-3,7.194377E-3,6.545635E-2,8.656169E-2,6.568403E-2,-9.180299E-1,7.006628E-2,-6.370414E-1,-2.517219E-1,5.5560973E-2,9.872773E-3,-2.9843165E-2,4.4364464E-2,-2.690441E-1,-8.0640346E-1,9.2554666E-2,8.425839E-2,9.5914096E-2,-9.280006E-1,7.397469E-2,1.8504266E-2,8.894997E-2,-7.932406E-2,9.827779E-2,7.569776E-2,1.0170734E-1,4.1941058E-2,5.0478186E-2,9.187143E-2,9.115916E-2,5.4513592E-2],"split_indices":[2,2,2,8,0,8,2,0,7,7,5,7,0,0,5,2,5,2,0,0,8,7,4,7,8,7,8,2,7,2,5,0,7,1,4,0,6,8,7,1,6,6,1,0,1,7,7,0,6,7,4,8,8,1,7,0,8,0,7,0,7,7,7,0,0,0,0,0,0,0,0,0,0,0,0,0,0,0,0,0,0,0,0,0,0,0,0,0,0,0,0,0,0,0,0,0,0,0,0,0,0,0,0,0,0,0,0,0,0,0,0,0,0,0,0,0,0,0,0,0,0,0,0,0,0],"split_type":[0,0,0,0,0,0,0,0,0,0,0,0,0,0,0,0,0,0,0,0,0,0,0,0,0,0,0,0,0,0,0,0,0,0,0,0,0,0,0,0,0,0,0,0,0,0,0,0,0,0,0,0,0,0,0,0,0,0,0,0,0,0,0,0,0,0,0,0,0,0,0,0,0,0,0,0,0,0,0,0,0,0,0,0,0,0,0,0,0,0,0,0,0,0,0,0,0,0,0,0,0,0,0,0,0,0,0,0,0,0,0,0,0,0,0,0,0,0,0,0,0,0,0,0,0],"sum_hessian":[7.2007965E6,1.1495421E6,6.051254E6,5.306652E5,6.1887694E5,1.6586438E6,4.3926105E6,4.5689328E5,7.37719E4,4.494075E5,1.6946945E5,1.5418485E6,1.16795305E5,1.5721196E6,2.8204908E6,3.6438953E5,9.250375E4,4.654999E2,7.33064E4,1.5479792E4,4.3392772E5,1.3775616E5,3.1713303E4,8.123835E5,7.29465E5,7.3549805E4,4.3245496E4,1.2550745E6,3.170452E5,2.583489E6,2.370018E5,9.738045E4,2.670091E5,1.5524636E3,9.095128E4,5.703767E1,4.0846225E2,6.4615027E4,8.691375E3,1.5400909E4,7.888262E1,4.0781878E5,2.6108941E4,7.28717E4,6.4884453E4,9.948968E1,3.1613814E4,5.4032325E5,2.7206022E5,6.3875025E5,9.071476E4,7.0573456E1,7.347923E4,4.3123664E4,1.2183396E2,6.1939556E5,6.356789E5,1.5428572E5,1.6275945E5,1.0180584E6,1.5654306E6,2.2587136E5,1.1130436E4,5.817242E4,3.9208027E4,4.328594E4,2.2372314E5,1.2210243E3,3.3143936E2,8.901525E4,1.9360308E3,3.5873935E2,4.972289E1,5.945621E4,5.1588154E3,1.1840468E3,7.507328E3,1.5336861E4,6.40485E1,6.280821E1,1.6074417E1,1.3097139E5,2.7684738E5,2.6062238E4,4.6703E1,6.79213E4,4.9504062E3,2.5855146E4,3.9029305E4,1.4147681E1,8.5342E1,6.4160283E3,2.5197785E4,5.2004234E5,2.0280943E4,7.530334E4,1.9675689E5,6.0064494E5,3.81053E4,5.016133E0,9.0709734E4,5.8313908E1,1.2259551E1,6.803894E4,5.440294E3,1.8315127E4,2.4808537E4,8.371188E0,1.1346277E2,4.0820147E5,2.111941E5,6.3567375E5,5.0962024E0,1.4200652E5,1.2279196E4,1.6245089E5,3.085684E2,9.911181E5,2.6940209E4,1.563525E6,1.9056879E3,2.211801E3,2.2365956E5,4.9787847E3,6.151651E3],"tree_param":{"num_deleted":"0","num_feature":"14","num_nodes":"125","size_leaf_vector":"1"}},{"base_weights":[7.560747E-1,8.574234E-1,1.857193E-1,9.380315E-1,7.003677E-1,3.6316988E-1,-1.4223666E-1,8.2245034E-1,9.7186345E-1,3.0993006E-1,7.897035E-1,-1.5780297E-1,4.5518398E-1,-6.6915385E-2,-6.300122E-1,6.479009E-1,8.573103E-1,1.0011396E0,9.223823E-1,4.4894978E-1,9.514954E-2,6.6174155E-1,8.358231E-1,-3.7942085E-1,9.51243E-2,-2.744768E-1,4.7894064E-1,-1.1126325E0,-3.713201E-2,-5.873943E-1,-3.1303966E0,4.253847E-1,7.9017353E-1,7.9532856E-1,9.049831E-1,9.648208E-1,1.0271285E0,9.270305E-1,-2.9583156E-1,5.971801E-1,1.5126018E-1,3.7963024E-1,-2.0406719E-1,5.299593E-1,7.591937E-1,6.5053767E-1,8.6261225E-1,-3.5317323E-1,-3.6667895E0,-1.9378681E-1,4.8850322E-1,-2.36707E-1,-9.212083E0,5.818661E-1,3.7194443E-1,-7.8001446E-1,-3.3587365E0,-9.093282E-1,-1.8227441E-2,6.7194605E-1,-6.4870274E-1,-3.7126973E0,-2.640327E0,4.3275055E-2,-9.813693E-1,5.041514E-2,8.394792E-2,5.7436E-2,8.445865E-2,9.165981E-2,5.632561E-2,9.168258E-2,9.9538594E-2,9.6594535E-2,1.03341356E-1,8.719293E-2,9.808742E-2,1.8905242E-3,-3.1039414E-1,6.0110677E-2,-8.1997985E-1,1.6029095E-3,4.5645118E-2,-7.144475E-1,3.851868E-2,-4.0915575E-2,1.9312141E-2,5.9051197E-2,1.7360087E-2,8.5982196E-2,6.5443136E-2,5.5686202E-2,8.1067115E-2,6.0807783E-2,8.724463E-2,-1.9633291E-2,-8.294244E-2,-5.820168E-1,-1.1676512E-2,3.2682877E-2,-5.287238E-2,5.7564657E-2,-1.01442434E-1,-4.823005E-3,-8.322856E-2,-7.05699E-1,-1.0227062E0,6.200732E-2,3.910478E-2,4.6516128E-2,1.1021429E-2,-2.423456E-2,-1.7746475E-1,-4.169181E-1,-9.134119E-2,-7.2265016E-3,-1.4562036E-1,7.935859E-3,-2.2212267E-2,8.6964026E-2,-2.6551658E-1,-7.187491E-2,5.6381255E-2,-3.848634E-1,-3.0162507E-1,-2.3483288E-1,-3.5407856E-1],"categories":[],"categories_nodes":[],"categories_segments":[],"categories_sizes":[],"default_left":[0,0,0,0,0,0,0,0,0,0,0,0,0,0,0,0,0,0,0,0,0,0,0,0,0,0,0,0,0,0,0,0,0,0,0,0,0,0,0,0,0,0,0,0,0,0,0,0,0,0,0,0,0,0,0,0,0,0,0,0,0,0,0,0,0,0,0,0,0,0,0,0,0,0,0,0,0,0,0,0,0,0,0,0,0,0,0,0,0,0,0,0,0,0,0,0,0,0,0,0,0,0,0,0,0,0,0,0,0,0,0,0,0,0,0,0,0,0,0,0,0,0,0,0,0,0,0],"id":7,"left_children":[1,3,5,7,9,11,13,15,17,19,21,23,25,27,29,31,33,35,37,39,41,43,45,47,49,51,53,55,57,59,61,63,65,67,69,71,73,75,77,79,81,83,85,87,89,91,93,95,97,99,101,103,105,107,109,111,113,115,117,119,121,123,125,-1,-1,-1,-1,-1,-1,-1,-1,-1,-1,-1,-1,-1,-1,-1,-1,-1,-1,-1,-1,-1,-1,-1,-1,-1,-1,-1,-1,-1,-1,-1,-1,-1,-1,-1,-1,-1,-1,-1,-1,-1,-1,-1,-1,-1,-1,-1,-1,-1,-1,-1,-1,-1,-1,-1,-1,-1,-1,-1,-1,-1,-1,-1,-1],"loss_changes":[3.8995325E5,7.25175E4,5.9235598E4,1.480125E4,6.776531E4,3.1661727E4,1.3129951E4,5.2148125E3,4.24125E3,1.0801723E4,9.3301875E3,5.557428E3,9.730602E3,9.641655E3,5.092166E3,4.516914E3,2.1104375E3,1.735375E3,6.1639375E3,9.69073E3,1.2100053E4,5.3789844E3,5.768125E3,4.5583257E3,5.262456E3,5.9731084E3,5.9867266E3,6.402133E3,4.9630645E3,3.629503E3,2.1875049E2,4.2015625E3,1.2270234E3,3.3804062E3,1.6023438E3,1.1248125E3,4.11375E2,3.216375E3,3.657518E3,5.0692734E3,3.012972E3,3.0492656E3,5.6436396E3,3.842504E3,2.5379844E3,2.2017852E3,2.5410625E3,3.9158071E3,3.198358E3,4.6553823E3,2.5684912E3,1.9786802E3,9.070215E1,2.0199141E3,6.5032227E3,3.9935479E3,2.1870244E3,2.9230742E3,5.862128E3,1.4378767E3,3.807246E3,2.280957E1,1.0694287E2,0E0,0E0,0E0,0E0,0E0,0E0,0E0,0E0,0E0,0E0,0E0,0E0,0E0,0E0,0E0,0E0,0E0,0E0,0E0,0E0,0E0,0E0,0E0,0E0,0E0,0E0,0E0,0E0,0E0,0E0,0E0,0E0,0E0,0E0,0E0,0E0,0E0,0E0,0E0,0E0,0E0,0E0,0E0,0E0,0E0,0E0,0E0,0E0,0E0,0E0,0E0,0E0,0E0,0E0,0E0,0E0,0E0,0E0,0E0,0E0,0E0,0E0,0E0,0E0],"parents":[2147483647,0,0,1,1,2,2,3,3,4,4,5,5,6,6,7,7,8,8,9,9,10,10,11,11,12,12,13,13,14,14,15,15,16,16,17,17,18,18,19,19,20,20,21,21,22,22,23,23,24,24,25,25,26,26,27,27,28,28,29,29,30,30,31,31,32,32,33,33,34,34,35,35,36,36,37,37,38,38,39,39,40,40,41,41,42,42,43,43,44,44,45,45,46,46,47,47,48,48,49,49,50,50,51,51,52,52,53,53,54,54,55,55,56,56,57,57,58,58,59,59,60,60,61,61,62,62],"right_children":[2,4,6,8,10,12,14,16,18,20,22,24,26,28,30,32,34,36,38,40,42,44,46,48,50,52,54,56,58,60,62,64,66,68,70,72,74,76,78,80,82,84,86,88,90,92,94,96,98,100,102,104,106,108,110,112,114,116,118,120,122,124,126,-1,-1,-1,-1,-1,-1,-1,-1,-1,-1,-1,-1,-1,-1,-1,-1,-1,-1,-1,-1,-1,-1,-1,-1,-1,-1,-1,-1,-1,-1,-1,-1,-1,-1,-1,-1,-1,-1,-1,-1,-1,-1,-1,-1,-1,-1,-1,-1,-1,-1,-1,-1,-1,-1,-1,-1,-1,-1,-1,-1,-1,-1,-1,-1],"split_conditions":[3.6172614E-1,-5.267205E-1,8.132118E-1,3.248559E-1,-7.458582E-1,-5.365755E-1,1.1909869E0,3.859601E-1,-1.3553607E0,-4.1649997E-2,-3.3386812E-1,-7.723844E-2,-9.8626107E-1,-9.9148196E-1,-4.5423007E-1,-1.3892114E-2,-9.3717925E-2,1.5838686E0,3.7758512E0,4.0698183E-1,-6.692583E-2,-6.272843E-2,-4.3674526E-1,4.5887183E-2,1.351645E-1,-7.725259E-2,5.721585E-1,-5.992866E-1,-7.133833E-1,-1.6644171E0,1.9007156E0,1.177656E0,-5.129089E-1,-4.5598963E-1,2.7926342E0,-6.412169E-1,-1.3003371E0,-1.3892114E-2,-8.281582E-1,4.043028E0,2.371316E-1,-1.6644171E0,2.2202796E-1,-4.1444895E-1,4.8527217E-1,-1.5579E-3,-9.770096E-1,-6.441214E-1,6.162524E-1,3.0103722E-1,-2.551263E-1,-1.64117E-1,-1.4928225E-1,2.7105263E-1,-1.5686417E-1,-1.0558E0,3.896217E-2,-1.1764513E0,-5.195055E-1,1.3067243E0,2.3552341E0,1.2684888E0,2.2022972E-1,4.3275055E-2,-9.813693E-1,5.041514E-2,8.394792E-2,5.7436E-2,8.445865E-2,9.165981E-2,5.632561E-2,9.168258E-2,9.9538594E-2,9.6594535E-2,1.03341356E-1,8.719293E-2,9.808742E-2,1.8905242E-3,-3.1039414E-1,6.0110677E-2,-8.1997985E-1,1.6029095E-3,4.5645118E-2,-7.144475E-1,3.851868E-2,-4.0915575E-2,1.9312141E-2,5.9051197E-2,1.7360087E-2,8.5982196E-2,6.5443136E-2,5.5686202E-2,8.1067115E-2,6.0807783E-2,8.724463E-2,-1.9633291E-2,-8.294244E-2,-5.820168E-1,-1.1676512E-2,3.2682877E-2,-5.287238E-2,5.7564657E-2,-1.01442434E-1,-4.823005E-3,-8.322856E-2,-7.05699E-1,-1.0227062E0,6.200732E-2,3.910478E-2,4.6516128E-2,1.1021429E-2,-2.423456E-2,-1.7746475E-1,-4.169181E-1,-9.134119E-2,-7.2265016E-3,-1.4562036E-1,7.935859E-3,-2.2212267E-2,8.6964026E-2,-2.6551658E-1,-7.187491E-2,5.6381255E-2,-3.848634E-1,-3.0162507E-1,-2.3483288E-1,-3.5407856E-1],"split_indices":[8,8,8,10,6,6,8,1,8,8,10,7,7,7,0,7,7,10,10,9,9,7,6,9,10,9,8,0,6,10,4,0,10,6,7,6,6,7,8,10,7,10,7,7,7,7,7,7,10,7,9,0,6,0,0,7,0,6,0,8,7,8,1,0,0,0,0,0,0,0,0,0,0,0,0,0,0,0,0,0,0,0,0,0,0,0,0,0,0,0,0,0,0,0,0,0,0,0,0,0,0,0,0,0,0,0,0,0,0,0,0,0,0,0,0,0,0,0,0,0,0,0,0,0,0,0,0],"split_type":[0,0,0,0,0,0,0,0,0,0,0,0,0,0,0,0,0,0,0,0,0,0,0,0,0,0,0,0,0,0,0,0,0,0,0,0,0,0,0,0,0,0,0,0,0,0,0,0,0,0,0,0,0,0,0,0,0,0,0,0,0,0,0,0,0,0,0,0,0,0,0,0,0,0,0,0,0,0,0,0,0,0,0,0,0,0,0,0,0,0,0,0,0,0,0,0,0,0,0,0,0,0,0,0,0,0,0,0,0,0,0,0,0,0,0,0,0,0,0,0,0,0,0,0,0,0,0],"sum_hessian":[6.7460325E6,5.7281705E6,1.017862E6,3.7853532E6,1.9428174E6,6.604858E5,3.5737616E5,8.571332E5,2.92822E6,3.6176153E5,1.5810559E6,9.9143945E4,5.613419E5,3.095736E5,4.780257E4,1.426884E5,7.144448E5,1.8397119E6,1.0885081E6,2.1961289E5,1.4214864E5,4.188753E5,1.1621806E6,5.2842348E4,4.6301598E4,1.7699812E4,5.4364206E5,8.571881E3,3.010017E5,4.7002668E4,7.999041E2,5.5652E4,8.7036414E4,3.106157E5,4.038291E5,7.673686E5,1.0723432E6,1.0843709E6,4.137261E3,1.4660967E5,7.300321E4,7.286852E4,6.928012E4,1.780751E5,2.408002E5,1.4680916E5,1.01537144E6,5.2424875E4,4.1747314E2,2.6695791E4,1.9605807E4,1.762635E4,7.34614E1,2.7708984E5,2.6655225E5,7.4674053E3,1.1044758E3,6.384706E3,2.94617E5,2.181541E3,4.4821125E4,3.625483E2,4.3735577E2,5.561295E4,3.904938E1,1.2799251E4,7.4237164E4,5.6622547E4,2.5399316E5,3.9055294E5,1.327615E4,2.9856997E5,4.6879866E5,9.990834E4,9.7243494E5,5.359362E5,5.4843475E5,3.7211797E3,4.1608167E2,1.4654519E5,6.448105E1,5.058839E4,2.2414822E4,5.282525E1,7.28157E4,4.56887E4,2.3591418E4,1.522107E5,2.5864395E4,1.228199E5,1.1798031E5,9.262775E4,5.4181406E4,3.777224E4,9.775992E5,3.9438344E4,1.298653E4,2.5945383E2,1.5801932E2,1.045104E4,1.624475E4,1.8531898E4,1.0739073E3,1.3390021E4,4.2363286E3,2.6066828E1,4.7394577E1,2.3086253E5,4.6227305E4,1.9654922E5,7.000302E4,4.847977E3,2.619428E3,8.2901404E2,2.754618E2,2.5234197E3,3.8612866E3,1.9925327E5,9.5363734E4,2.059883E3,1.21657906E2,4.2373633E4,2.447492E3,2.9955353E2,6.2994778E1,3.3298444E2,1.04371346E2],"tree_param":{"num_deleted":"0","num_feature":"14","num_nodes":"127","size_leaf_vector":"1"}},{"base_weights":[7.2841996E-1,8.465266E-1,2.1753234E-1,4.727914E-1,8.913613E-1,-8.689978E-2,4.2069525E-1,1.9708112E-1,6.74133E-1,7.8867024E-1,9.4211E-1,-3.12313E-1,3.0610627E-2,5.3573716E-1,-6.2381852E-2,-1.7161176E-1,2.8210178E-1,5.578657E-1,8.6189115E-1,6.342435E-1,8.3140707E-1,9.8057723E-1,8.7017894E-1,-2.6521373E-1,-1.449557E0,2.3747578E-1,-2.5269556E-1,-4.3457136E-2,5.5496526E-1,4.5231305E-2,-4.7325614E-1,-8.183139E0,-1.6076845E-1,8.889953E-2,4.903114E-1,7.3172784E-1,6.6072434E-2,9.459555E-1,7.310411E-1,4.4951308E-1,7.7664435E-1,7.481631E-1,8.580189E-1,9.3267614E-1,1.0042715E0,7.145631E-1,9.1613024E-1,5.4360093E-3,-3.6864656E-1,-5.4870753E0,-9.6358836E-1,3.0293334E-1,-3.282217E-1,-1.5779916E0,-2.1496768E-1,-1.3901699E-2,-8.923398E0,6.431989E-1,4.330698E-1,2.5929144E-1,-2.9139328E-1,-1.17489286E-1,-7.866408E-1,-5.6306183E-1,-9.72569E-1,-9.616551E-2,-6.5073124E-3,2.2057224E-2,-2.9901654E-2,-5.348175E-1,4.956138E-2,8.488587E-2,5.0917145E-2,-4.9669262E-2,5.914262E-2,9.466412E-2,-1.1047539E0,7.758266E-2,4.6188004E-2,5.1342547E-2,-6.98385E-3,7.78766E-2,-1.0512323E0,7.524394E-2,-1.438531E-1,8.585239E-2,-9.4794625E-1,8.659123E-2,9.651292E-2,9.689569E-2,1.0192639E-1,8.729534E-2,5.2597713E-2,9.3806736E-2,8.720173E-2,3.152951E-3,-5.9497404E-1,-3.3842605E-2,-2.0171392E-1,-4.3696332E-1,-6.3744277E-1,-5.327594E-2,-3.4336E-1,3.0604834E-2,-8.353878E-1,-7.500797E-1,-2.9274685E-2,-3.2368454E-1,-3.4850016E-2,-1.908189E-2,-2.1406329E-1,3.078199E-3,-2.330211E-1,-1.2904867E0,-7.707517E-1,5.7268824E-2,6.956666E-2,5.5037864E-2,3.0357946E-2,-4.4935293E-2,3.1393964E-2,-2.2404018E-1,-2.4796423E-2,-4.7799498E-2,4.5379248E-2,-4.3436867E-1,-6.570566E-2],"categories":[],"categories_nodes":[],"categories_segments":[],"categories_sizes":[],"default_left":[0,0,0,0,0,0,0,0,0,0,0,0,0,0,0,0,0,0,0,0,0,0,0,0,0,0,0,0,0,0,0,0,0,0,0,0,0,0,0,0,0,0,0,0,0,0,0,0,0,0,0,0,0,0,0,0,0,0,0,0,0,0,0,0,0,0,0,0,0,0,0,0,0,0,0,0,0,0,0,0,0,0,0,0,0,0,0,0,0,0,0,0,0,0,0,0,0,0,0,0,0,0,0,0,0,0,0,0,0,0,0,0,0,0,0,0,0,0,0,0,0,0,0,0,0,0,0],"id":8,"left_children":[1,3,5,7,9,11,13,15,17,19,21,23,25,27,29,31,33,35,37,39,41,43,45,47,49,51,53,55,57,59,61,63,65,67,69,71,73,75,77,79,81,83,85,87,89,91,93,95,97,99,101,103,105,107,109,111,113,115,117,119,121,123,125,-1,-1,-1,-1,-1,-1,-1,-1,-1,-1,-1,-1,-1,-1,-1,-1,-1,-1,-1,-1,-1,-1,-1,-1,-1,-1,-1,-1,-1,-1,-1,-1,-1,-1,-1,-1,-1,-1,-1,-1,-1,-1,-1,-1,-1,-1,-1,-1,-1,-1,-1,-1,-1,-1,-1,-1,-1,-1,-1,-1,-1,-1,-1,-1],"loss_changes":[3.80496E5,8.5823E4,7.323412E4,3.045514E4,2.383275E4,1.2553425E4,3.9466125E4,7.258365E3,6.921328E3,9.9819375E3,8.46775E3,8.698294E3,1.8257205E4,6.3876875E3,6.039469E3,3.7680894E3,7.569045E3,1.6743438E4,1.3331094E3,8.624391E3,2.6238125E3,2.2625E3,7.625375E3,4.3654717E3,1.2666262E4,6.66729E3,6.573297E3,4.8369053E3,5.970328E3,7.7997935E3,3.16069E3,1.7608057E2,3.3210244E3,4.985237E3,2.8063105E3,3.7709688E3,1.5122041E4,6.1752344E2,5.7143555E2,4.737426E3,4.442539E3,2.68475E3,4.6946875E3,1.429125E3,7.05375E2,7.2618438E3,7.96E2,6.700464E3,5.6200684E3,6.598926E2,6.133579E3,4.3543096E3,4.749292E3,7.420582E3,5.9441543E3,1.9014012E3,1.9649951E2,1.1909688E3,3.5407734E3,2.562546E3,3.5609133E3,2.7348916E3,6.9446553E3,0E0,0E0,0E0,0E0,0E0,0E0,0E0,0E0,0E0,0E0,0E0,0E0,0E0,0E0,0E0,0E0,0E0,0E0,0E0,0E0,0E0,0E0,0E0,0E0,0E0,0E0,0E0,0E0,0E0,0E0,0E0,0E0,0E0,0E0,0E0,0E0,0E0,0E0,0E0,0E0,0E0,0E0,0E0,0E0,0E0,0E0,0E0,0E0,0E0,0E0,0E0,0E0,0E0,0E0,0E0,0E0,0E0,0E0,0E0,0E0,0E0,0E0,0E0,0E0],"parents":[2147483647,0,0,1,1,2,2,3,3,4,4,5,5,6,6,7,7,8,8,9,9,10,10,11,11,12,12,13,13,14,14,15,15,16,16,17,17,18,18,19,19,20,20,21,21,22,22,23,23,24,24,25,25,26,26,27,27,28,28,29,29,30,30,31,31,32,32,33,33,34,34,35,35,36,36,37,37,38,38,39,39,40,40,41,41,42,42,43,43,44,44,45,45,46,46,47,47,48,48,49,49,50,50,51,51,52,52,53,53,54,54,55,55,56,56,57,57,58,58,59,59,60,60,61,61,62,62],"right_children":[2,4,6,8,10,12,14,16,18,20,22,24,26,28,30,32,34,36,38,40,42,44,46,48,50,52,54,56,58,60,62,64,66,68,70,72,74,76,78,80,82,84,86,88,90,92,94,96,98,100,102,104,106,108,110,112,114,116,118,120,122,124,126,-1,-1,-1,-1,-1,-1,-1,-1,-1,-1,-1,-1,-1,-1,-1,-1,-1,-1,-1,-1,-1,-1,-1,-1,-1,-1,-1,-1,-1,-1,-1,-1,-1,-1,-1,-1,-1,-1,-1,-1,-1,-1,-1,-1,-1,-1,-1,-1,-1,-1,-1,-1,-1,-1,-1,-1,-1,-1,-1,-1,-1,-1,-1,-1],"split_conditions":[2.5560272E-1,-2.988423E-1,-4.200112E-1,3.0333716E-1,3.465294E-1,-9.539116E-1,8.5149366E-1,-6.7337257E-1,-1.3380922E-1,3.2593477E-1,-1.0307623E0,-1.20665304E-1,1.3323866E-1,-9.739439E-1,1.1158806E0,-1.098247E0,-7.723844E-2,-7.496966E-1,-3.9878836E-1,-6.272843E-2,-6.255374E-1,1.2556188E0,-4.066759E-1,5.0392896E-1,-8.1073946E-1,-2.085163E-1,-9.9148196E-1,1.3785895E0,5.377773E-1,-1.8225834E-1,-3.1655967E-2,-9.3876547E-1,-1.143238E0,-7.127731E-1,-1.6771383E0,-2.2020055E-1,-1.1271375E0,2.9125702E-1,3.0676377E-1,4.8066315E-1,9.2238945E-1,3.3477747E0,2.57019E0,-6.8211114E-1,1.1135325E0,-7.496966E-1,-2.7760267E-1,-6.2026006E-1,-3.2728454E-1,-1.3003371E0,3.8342705E-1,2.9384298E0,-1.5746115E0,1.1158806E0,1.3652812E0,8.009305E-1,3.6172614E-1,1.934063E-1,8.7187296E-1,-8.147369E-1,-2.4583091E-1,3.0585613E-2,1.5837876E-1,-5.6306183E-1,-9.72569E-1,-9.616551E-2,-6.5073124E-3,2.2057224E-2,-2.9901654E-2,-5.348175E-1,4.956138E-2,8.488587E-2,5.0917145E-2,-4.9669262E-2,5.914262E-2,9.466412E-2,-1.1047539E0,7.758266E-2,4.6188004E-2,5.1342547E-2,-6.98385E-3,7.78766E-2,-1.0512323E0,7.524394E-2,-1.438531E-1,8.585239E-2,-9.4794625E-1,8.659123E-2,9.651292E-2,9.689569E-2,1.0192639E-1,8.729534E-2,5.2597713E-2,9.3806736E-2,8.720173E-2,3.152951E-3,-5.9497404E-1,-3.3842605E-2,-2.0171392E-1,-4.3696332E-1,-6.3744277E-1,-5.327594E-2,-3.4336E-1,3.0604834E-2,-8.353878E-1,-7.500797E-1,-2.9274685E-2,-3.2368454E-1,-3.4850016E-2,-1.908189E-2,-2.1406329E-1,3.078199E-3,-2.330211E-1,-1.2904867E0,-7.707517E-1,5.7268824E-2,6.956666E-2,5.5037864E-2,3.0357946E-2,-4.4935293E-2,3.1393964E-2,-2.2404018E-1,-2.4796423E-2,-4.7799498E-2,4.5379248E-2,-4.3436867E-1,-6.570566E-2],"split_indices":[8,3,3,10,10,3,8,10,7,3,8,9,4,7,8,7,7,7,8,7,10,10,6,8,7,9,7,3,8,1,7,3,3,7,3,8,6,1,9,1,6,7,6,6,3,7,8,1,9,6,8,7,10,8,8,8,8,3,6,7,3,3,7,0,0,0,0,0,0,0,0,0,0,0,0,0,0,0,0,0,0,0,0,0,0,0,0,0,0,0,0,0,0,0,0,0,0,0,0,0,0,0,0,0,0,0,0,0,0,0,0,0,0,0,0,0,0,0,0,0,0,0,0,0,0,0,0],"split_type":[0,0,0,0,0,0,0,0,0,0,0,0,0,0,0,0,0,0,0,0,0,0,0,0,0,0,0,0,0,0,0,0,0,0,0,0,0,0,0,0,0,0,0,0,0,0,0,0,0,0,0,0,0,0,0,0,0,0,0,0,0,0,0,0,0,0,0,0,0,0,0,0,0,0,0,0,0,0,0,0,0,0,0,0,0,0,0,0,0,0,0,0,0,0,0,0,0,0,0,0,0,0,0,0,0,0,0,0,0,0,0,0,0,0,0,0,0,0,0,0,0,0,0,0,0,0,0],"sum_hessian":[6.305944E6,5.121872E6,1.1840718E6,5.486246E5,4.5732475E6,4.739203E5,7.101515E5,2.3155E5,3.1707466E5,1.5125629E6,3.0606845E6,1.6239877E5,3.1152153E5,5.7356125E5,1.3659027E5,4.33896E4,1.8816039E5,1.9581945E5,1.212552E5,3.278639E5,1.184699E6,1.9942099E6,1.0664746E6,1.5594162E5,6.4571323E3,1.8005138E5,1.3147016E5,1.8429252E4,5.55132E5,1.08241375E5,2.834889E4,5.762817E1,4.3331973E4,9.7598266E4,9.056213E4,1.4467312E5,5.1146336E4,7.382212E4,4.7433082E4,1.4272158E5,1.8514231E5,2.8699244E5,8.977065E5,6.59991E5,1.3342189E6,2.4312808E5,8.233466E5,4.3117707E4,1.1282392E5,6.92599E2,5.7645337E3,1.6137853E5,1.8672848E4,3.6379028E3,1.2783226E5,1.8369115E4,6.0137035E1,3.2202844E5,2.3310355E5,6.616633E4,4.2075047E4,1.3277321E4,1.507157E4,2.3459318E1,3.4168854E1,4.624007E3,3.8707965E4,7.286551E4,2.4732752E4,8.125808E1,9.0480875E4,9.478513E4,4.988799E4,2.4693947E4,2.6452389E4,7.381882E4,3.2989798E0,4.0664984E4,6.7680957E3,1.2708257E5,1.5639011E4,1.8510845E5,3.3857742E1,2.8643294E5,5.594936E2,8.9766356E5,4.2936787E1,2.1588681E5,4.4410416E5,3.9763884E5,9.3658006E5,1.3214119E5,1.109869E5,5.4987644E5,2.7347016E5,4.2930598E4,1.8711212E2,1.1079402E5,2.029896E3,3.0917706E2,3.8342197E2,4.9094277E3,8.551058E2,1.6132145E5,5.708401E1,9.086387E1,1.8581982E4,1.5478633E3,2.0900396E3,1.2625012E5,1.5821392E3,1.8022432E4,3.4668222E2,1.1819582E1,4.831745E1,1.373957E5,1.8463273E5,1.2230281E5,1.10800734E5,4.7366836E3,6.1429645E4,9.160052E2,4.115904E4,8.1404663E3,5.1368545E3,5.286195E2,1.454295E4],"tree_param":{"num_deleted":"0","num_feature":"14","num_nodes":"127","size_leaf_vector":"1"}},{"base_weights":[7.025711E-1,1.942214E-1,8.473615E-1,-8.3942525E-2,3.560878E-1,7.030704E-1,9.220206E-1,-3.0025494E-1,1.993982E-2,4.4973078E-1,1.574875E-1,7.331238E-1,4.1952348E-1,8.708355E-1,9.5924664E-1,-1.0441894E-1,-4.963765E-1,2.6627648E-1,-2.0627339E-1,3.2253587E-1,5.691316E-1,-7.1097344E-2,3.6233702E-1,7.660606E-1,6.055678E-1,1.3051175E-1,5.409269E-1,8.995287E-1,7.5925106E-1,9.7096986E-1,8.715019E-1,-5.292254E-1,1.034686E-1,-4.724539E-1,-2.1780038E0,3.1827277E-1,-6.872427E-2,-1.06729805E-1,-6.342856E-1,3.8970238E-1,7.009434E-2,5.711459E-1,-6.7382264E0,4.772051E-2,-6.2901986E-1,6.0192364E-1,-6.340164E-2,6.925019E-1,8.185076E-1,1.2154377E-1,6.8803537E-1,4.153011E-1,-4.3105364E-1,5.461409E-1,-3.9307766E0,9.553285E-1,8.838563E-1,-1.1309094E0,7.602263E-1,9.456533E-1,9.8430854E-1,-1.3521513E0,8.7362015E-1,-7.7651866E-2,-2.096918E-2,1.7497355E-2,-5.0594766E-2,-3.4525912E-2,-7.385578E-2,-2.7716506E-1,-1.8935744E-1,-1.1237953E-2,3.509934E-2,1.0355882E-2,-1.0823288E-1,-2.7689332E-2,1.8387463E-2,-2.0116296E-1,-5.2955456E-2,4.4352233E-2,1.3388405E-2,1.35752065E-2,-1.2066442E-1,6.277545E-2,4.1066065E-2,-8.567408E-1,-5.1952845E-1,-2.9970814E-2,2.7708787E-2,-5.9509456E-2,-8.182891E-1,-1.1507173E0,6.0445316E-2,1.5884271E-3,-1.3683334E-1,7.3548034E-2,5.1186014E-2,9.031054E-2,7.929469E-2,-5.012506E-1,1.4936896E-2,5.4463007E-2,7.4880645E-2,4.2412754E-2,-6.9705135E-1,-6.176805E-1,-3.5782605E-2,5.5043835E-2,-4.6375653E-1,-1.1046923E0,7.6177165E-2,9.5581494E-2,-1.4504765E0,8.307187E-2,9.089462E-2,6.312574E-2,8.408203E-2,9.4594285E-2,-1.4592304E0,9.9654846E-2,9.301635E-2,-1.4464096E0,8.74185E-2],"categories":[],"categories_nodes":[],"categories_segments":[],"categories_sizes":[],"default_left":[0,0,0,0,0,0,0,0,0,0,0,0,0,0,0,0,0,0,0,0,0,0,0,0,0,0,0,0,0,0,0,0,0,0,0,0,0,0,0,0,0,0,0,0,0,0,0,0,0,0,0,0,0,0,0,0,0,0,0,0,0,0,0,0,0,0,0,0,0,0,0,0,0,0,0,0,0,0,0,0,0,0,0,0,0,0,0,0,0,0,0,0,0,0,0,0,0,0,0,0,0,0,0,0,0,0,0,0,0,0,0,0,0,0,0,0,0,0,0,0,0,0,0],"id":9,"left_children":[1,3,5,7,9,11,13,15,17,19,21,23,25,27,29,31,33,35,37,39,41,43,45,47,49,51,53,55,57,59,61,63,65,67,69,71,73,75,77,79,81,83,85,87,89,91,93,95,97,99,101,103,105,107,109,111,113,-1,115,117,119,-1,121,-1,-1,-1,-1,-1,-1,-1,-1,-1,-1,-1,-1,-1,-1,-1,-1,-1,-1,-1,-1,-1,-1,-1,-1,-1,-1,-1,-1,-1,-1,-1,-1,-1,-1,-1,-1,-1,-1,-1,-1,-1,-1,-1,-1,-1,-1,-1,-1,-1,-1,-1,-1,-1,-1,-1,-1,-1,-1,-1,-1],"loss_changes":[4.3626725E5,5.9161887E4,4.969625E4,1.0861318E4,1.5447406E4,1.34045625E4,5.792E3,6.022835E3,1.8196E4,8.572445E3,1.2462899E4,5.9750625E3,5.2894336E3,4.0979375E3,1.80975E3,6.92952E3,3.1509023E3,2.722829E3,7.252301E3,4.6341953E3,4.2893438E3,8.338874E3,1.4317496E4,4.3604375E3,1.1651281E4,7.132208E3,2.4773027E3,8.89625E2,3.090375E3,5.2325E2,6.3366094E3,2.0370967E3,2.2958914E3,2.6145059E3,1.8026562E2,1.9067568E3,3.6677957E3,6.8292637E3,4.6320215E3,2.9721602E3,4.8151504E3,2.644086E3,1.8215723E2,8.264329E3,5.6549707E3,2.7581465E3,5.2297656E3,3.6525469E3,1.4262812E3,6.0712847E3,2.1731016E3,1.9319331E3,6.311665E3,2.3647188E3,4.1411016E3,1.6927812E3,1.059125E3,0E0,2.7209062E3,2.42425E3,6.729375E2,0E0,1.8095469E3,0E0,0E0,0E0,0E0,0E0,0E0,0E0,0E0,0E0,0E0,0E0,0E0,0E0,0E0,0E0,0E0,0E0,0E0,0E0,0E0,0E0,0E0,0E0,0E0,0E0,0E0,0E0,0E0,0E0,0E0,0E0,0E0,0E0,0E0,0E0,0E0,0E0,0E0,0E0,0E0,0E0,0E0,0E0,0E0,0E0,0E0,0E0,0E0,0E0,0E0,0E0,0E0,0E0,0E0,0E0,0E0,0E0,0E0,0E0,0E0],"parents":[2147483647,0,0,1,1,2,2,3,3,4,4,5,5,6,6,7,7,8,8,9,9,10,10,11,11,12,12,13,13,14,14,15,15,16,16,17,17,18,18,19,19,20,20,21,21,22,22,23,23,24,24,25,25,26,26,27,27,28,28,29,29,30,30,31,31,32,32,33,33,34,34,35,35,36,36,37,37,38,38,39,39,40,40,41,41,42,42,43,43,44,44,45,45,46,46,47,47,48,48,49,49,50,50,51,51,52,52,53,53,54,54,55,55,56,56,58,58,59,59,60,60,62,62],"right_children":[2,4,6,8,10,12,14,16,18,20,22,24,26,28,30,32,34,36,38,40,42,44,46,48,50,52,54,56,58,60,62,64,66,68,70,72,74,76,78,80,82,84,86,88,90,92,94,96,98,100,102,104,106,108,110,112,114,-1,116,118,120,-1,122,-1,-1,-1,-1,-1,-1,-1,-1,-1,-1,-1,-1,-1,-1,-1,-1,-1,-1,-1,-1,-1,-1,-1,-1,-1,-1,-1,-1,-1,-1,-1,-1,-1,-1,-1,-1,-1,-1,-1,-1,-1,-1,-1,-1,-1,-1,-1,-1,-1,-1,-1,-1,-1,-1,-1,-1,-1,-1,-1,-1],"split_conditions":[-1.8899772E-1,-6.361245E-1,6.101225E-1,-8.7395793E-1,-2.8741506E-1,3.5130343E-1,1.4092427E0,-1.0779732E0,-8.023658E-1,-4.458578E-1,-2.571905E-1,4.1610917E-1,4.130249E-1,1.0761164E0,7.491776E-1,-1.0547113E0,1.7895895E0,-1.5340212E-1,8.479287E-1,-4.5423007E-1,1.1968361E0,2.6713842E-1,9.055506E-1,1.20185696E-1,-3.4931363E-3,2.057772E-1,1.5402974E0,2.7941912E-1,-2.4583091E-1,1.9800429E0,1.1135325E0,-1.215182E0,-9.2804503E-1,-9.57864E-1,1.6680648E0,-1.1722599E0,-8.7818104E-1,-6.7749506E-1,-8.216346E-1,1.5377592E-2,1.510546E0,1.1705645E-1,9.162438E-1,-6.8885463E-1,-2.6476353E-1,-3.0067465E-1,3.145696E-1,5.4026335E-1,-2.059341E-1,-7.7973133E-1,4.0166533E-1,2.0181167E0,-9.0580076E-1,9.42425E-1,2.309097E0,1.9503552E0,8.3844256E-1,-1.1309094E0,1.0983864E0,2.5759685E0,2.8161004E0,-1.3521513E0,1.1893637E-1,-7.7651866E-2,-2.096918E-2,1.7497355E-2,-5.0594766E-2,-3.4525912E-2,-7.385578E-2,-2.7716506E-1,-1.8935744E-1,-1.1237953E-2,3.509934E-2,1.0355882E-2,-1.0823288E-1,-2.7689332E-2,1.8387463E-2,-2.0116296E-1,-5.2955456E-2,4.4352233E-2,1.3388405E-2,1.35752065E-2,-1.2066442E-1,6.277545E-2,4.1066065E-2,-8.567408E-1,-5.1952845E-1,-2.9970814E-2,2.7708787E-2,-5.9509456E-2,-8.182891E-1,-1.1507173E0,6.0445316E-2,1.5884271E-3,-1.3683334E-1,7.3548034E-2,5.1186014E-2,9.031054E-2,7.929469E-2,-5.012506E-1,1.4936896E-2,5.4463007E-2,7.4880645E-2,4.2412754E-2,-6.9705135E-1,-6.176805E-1,-3.5782605E-2,5.5043835E-2,-4.6375653E-1,-1.1046923E0,7.6177165E-2,9.5581494E-2,-1.4504765E0,8.307187E-2,9.089462E-2,6.312574E-2,8.408203E-2,9.4594285E-2,-1.4592304E0,9.9654846E-2,9.301635E-2,-1.4464096E0,8.74185E-2],"split_indices":[2,2,2,2,0,8,2,0,0,2,3,0,3,0,4,2,6,9,4,0,3,4,6,2,3,0,0,1,3,2,3,3,1,9,4,0,3,3,2,9,6,9,8,3,3,8,0,9,1,3,3,6,9,8,0,3,2,0,3,1,9,0,6,0,0,0,0,0,0,0,0,0,0,0,0,0,0,0,0,0,0,0,0,0,0,0,0,0,0,0,0,0,0,0,0,0,0,0,0,0,0,0,0,0,0,0,0,0,0,0,0,0,0,0,0,0,0,0,0,0,0,0,0],"split_type":[0,0,0,0,0,0,0,0,0,0,0,0,0,0,0,0,0,0,0,0,0,0,0,0,0,0,0,0,0,0,0,0,0,0,0,0,0,0,0,0,0,0,0,0,0,0,0,0,0,0,0,0,0,0,0,0,0,0,0,0,0,0,0,0,0,0,0,0,0,0,0,0,0,0,0,0,0,0,0,0,0,0,0,0,0,0,0,0,0,0,0,0,0,0,0,0,0,0,0,0,0,0,0,0,0,0,0,0,0,0,0,0,0,0,0,0,0,0,0,0,0,0,0],"sum_hessian":[5.927211E6,1.3139655E6,4.6132455E6,4.833461E5,8.306194E5,1.573059E6,3.0401865E6,1.568137E5,3.2653238E5,5.644647E5,2.661547E5,1.422306E6,1.5075295E5,1.280099E6,1.7600875E6,7.846475E4,7.834896E4,1.5631344E5,1.7021894E5,2.7331372E5,2.9115097E5,1.257902E5,1.4036448E5,1.1304118E6,2.9189425E5,4.4594297E4,1.0615866E5,1.0182543E6,2.6184464E5,1.5526362E6,2.0745117E5,2.578106E4,5.268369E4,7.725127E4,1.0976853E3,1.3531147E5,2.1001967E4,1.3810164E5,3.2117299E4,2.1587566E5,5.7438047E4,2.9107166E5,7.93125E1,1.0370549E5,2.2084705E4,8.981834E4,5.054615E4,4.7051403E5,6.5989775E5,4.249312E4,2.4940112E5,2.9588963E4,1.5005333E4,1.060359E5,1.22759575E2,2.2326952E5,7.949848E5,2.0220612E1,2.618244E5,5.357905E5,1.01684575E6,2.958727E1,2.0742158E5,1.4532583E4,1.1248477E4,4.7151902E4,5.5317856E3,5.2269375E4,2.4981898E4,3.5273328E2,7.44952E2,9.554715E3,1.2575676E5,1.7951615E4,3.0503513E3,8.7100164E4,5.100148E4,2.2682874E3,2.9849012E4,1.783525E5,3.752316E4,5.4629555E4,2.8084934E3,2.1517077E5,7.590089E4,3.4206966E1,4.5105534E1,4.1239164E4,6.2466332E4,2.198704E4,9.766746E1,1.7808773E1,8.980054E4,4.765187E4,2.8942764E3,3.800817E5,9.0432336E4,1.5311178E5,5.0678597E5,2.2809433E2,4.2265027E4,7.423475E4,1.7516638E5,2.9554586E4,3.43766E1,1.8778217E2,1.4817552E4,1.0594896E5,8.694155E1,4.8244183E1,7.4515396E1,2.2326342E5,6.085949E0,2.5498639E5,5.3999844E5,1.00696195E5,1.6112822E5,5.3578144E5,9.044726E0,8.2934794E5,1.8749783E5,6.6951385E0,2.0741489E5],"tree_param":{"num_deleted":"0","num_feature":"14","num_nodes":"123","size_leaf_vector":"1"}},{"base_weights":[6.763117E-1,1.4421888E-1,8.1809646E-1,-7.024858E-2,3.216999E-1,6.5359455E-1,8.989004E-1,-4.514433E-1,-2.0691212E-2,4.0977713E-1,7.243708E-2,5.124729E-1,7.3934895E-1,7.669984E-1,9.4143605E-1,-3.9727738E-1,-1.8645401E0,1.0928037E-1,-2.1476592E-1,3.2802126E-1,5.446514E-1,-1.8986556E-1,3.1613287E-1,2.9990017E-1,6.27959E-1,6.8469673E-1,8.148099E-1,6.450563E-1,8.0641806E-1,8.900828E-1,9.718145E-1,-1.1732492E0,-3.1705233E-1,-1.2177954E0,-3.4271626E0,-6.5278254E-2,2.4471445E-1,-4.336175E-1,-9.817029E-2,-2.527668E-1,3.5432175E-1,5.4687697E-1,-4.6171002E0,-8.9130856E-2,-1.0030613E0,5.707425E-1,-2.1177417E-1,4.148401E-1,-2.1212739E-1,7.409421E-1,4.341806E-1,8.119277E-1,4.4271365E-1,8.156041E-1,-8.359993E0,4.1246456E-1,7.1887827E-1,7.293387E-1,8.4391105E-1,9.0318704E-1,7.904925E-1,9.347102E-1,1.0061352E0,-1.8561581E-1,-1.673318E-2,-1.4149173E-2,-6.451935E-2,-2.2802179E-1,-2.199404E-2,-4.425296E-1,-2.2414795E-1,3.1939687E-3,-7.696986E-2,1.3082627E-3,3.8669508E-2,7.757278E-2,-4.74088E-2,-6.8382076E-3,-1.5552972E-1,-5.833408E-1,-1.8604672E-2,4.401463E-2,2.0321293E-2,6.1372925E-2,3.9580025E-2,-4.1047898E-1,-7.253732E-1,-7.702233E-2,-1.8309546E-4,-1.792333E-1,-5.7894713E-3,1.4507661E-2,7.572135E-2,-4.6067286E-1,-1.8284416E-2,2.2385472E-2,4.9259137E-2,-6.005607E-2,3.0260822E-2,-1.3914872E0,7.415127E-2,2.3447515E-2,6.10855E-2,7.136898E-2,9.073231E-2,7.218602E-2,8.510894E-3,8.4540844E-2,6.663024E-2,-9.3307954E-1,-4.4179377E-1,4.1916065E-2,-1.1338314E0,-1.0649588E0,7.197926E-2,7.315807E-2,-1.1430018E0,-1.6061356E0,8.4424324E-2,8.7434344E-2,9.393722E-2,8.387878E-2,6.0146987E-2,8.5847765E-2,9.4860956E-2,9.8910086E-2,1.0234282E-1],"categories":[],"categories_nodes":[],"categories_segments":[],"categories_sizes":[],"default_left":[0,0,0,0,0,0,0,0,0,0,0,0,0,0,0,0,0,0,0,0,0,0,0,0,0,0,0,0,0,0,0,0,0,0,0,0,0,0,0,0,0,0,0,0,0,0,0,0,0,0,0,0,0,0,0,0,0,0,0,0,0,0,0,0,0,0,0,0,0,0,0,0,0,0,0,0,0,0,0,0,0,0,0,0,0,0,0,0,0,0,0,0,0,0,0,0,0,0,0,0,0,0,0,0,0,0,0,0,0,0,0,0,0,0,0,0,0,0,0,0,0,0,0,0,0,0,0],"id":10,"left_children":[1,3,5,7,9,11,13,15,17,19,21,23,25,27,29,31,33,35,37,39,41,43,45,47,49,51,53,55,57,59,61,63,65,67,69,71,73,75,77,79,81,83,85,87,89,91,93,95,97,99,101,103,105,107,109,111,113,115,117,119,121,123,125,-1,-1,-1,-1,-1,-1,-1,-1,-1,-1,-1,-1,-1,-1,-1,-1,-1,-1,-1,-1,-1,-1,-1,-1,-1,-1,-1,-1,-1,-1,-1,-1,-1,-1,-1,-1,-1,-1,-1,-1,-1,-1,-1,-1,-1,-1,-1,-1,-1,-1,-1,-1,-1,-1,-1,-1,-1,-1,-1,-1,-1,-1,-1,-1],"loss_changes":[4.21104E5,4.4702805E4,5.85835E4,1.0046148E4,1.4108289E4,1.7568938E4,1.658175E4,4.682252E3,1.1870897E4,5.2357188E3,1.0725215E4,1.34711875E4,3.7236875E3,3.4638125E3,3.485625E3,3.6678438E3,2.2781572E3,6.6634404E3,4.816544E3,4.5159316E3,2.0611875E3,6.6194717E3,1.1690818E4,1.1369061E4,7.7845E3,1.6124375E4,2.7705469E3,3.0228828E3,1.573375E3,1.083375E3,1.78725E3,3.7922363E3,3.0765015E3,1.6944761E3,7.7180176E2,8.433097E3,5.219699E3,3.211459E3,5.345283E3,4.7679385E3,3.667875E3,1.8088789E3,7.4692505E1,4.2752676E3,6.6442256E3,4.6574062E3,3.597509E3,2.3425762E3,7.081135E3,1.8883594E3,4.620617E3,3.2161562E3,1.8016414E4,1.6871406E3,8.4754395E1,3.342629E3,1.3968906E3,4.8671797E3,2.0710781E3,7.653125E2,8.8135156E2,7.14125E2,2.13875E2,0E0,0E0,0E0,0E0,0E0,0E0,0E0,0E0,0E0,0E0,0E0,0E0,0E0,0E0,0E0,0E0,0E0,0E0,0E0,0E0,0E0,0E0,0E0,0E0,0E0,0E0,0E0,0E0,0E0,0E0,0E0,0E0,0E0,0E0,0E0,0E0,0E0,0E0,0E0,0E0,0E0,0E0,0E0,0E0,0E0,0E0,0E0,0E0,0E0,0E0,0E0,0E0,0E0,0E0,0E0,0E0,0E0,0E0,0E0,0E0,0E0,0E0,0E0,0E0],"parents":[2147483647,0,0,1,1,2,2,3,3,4,4,5,5,6,6,7,7,8,8,9,9,10,10,11,11,12,12,13,13,14,14,15,15,16,16,17,17,18,18,19,19,20,20,21,21,22,22,23,23,24,24,25,25,26,26,27,27,28,28,29,29,30,30,31,31,32,32,33,33,34,34,35,35,36,36,37,37,38,38,39,39,40,40,41,41,42,42,43,43,44,44,45,45,46,46,47,47,48,48,49,49,50,50,51,51,52,52,53,53,54,54,55,55,56,56,57,57,58,58,59,59,60,60,61,61,62,62],"right_children":[2,4,6,8,10,12,14,16,18,20,22,24,26,28,30,32,34,36,38,40,42,44,46,48,50,52,54,56,58,60,62,64,66,68,70,72,74,76,78,80,82,84,86,88,90,92,94,96,98,100,102,104,106,108,110,112,114,116,118,120,122,124,126,-1,-1,-1,-1,-1,-1,-1,-1,-1,-1,-1,-1,-1,-1,-1,-1,-1,-1,-1,-1,-1,-1,-1,-1,-1,-1,-1,-1,-1,-1,-1,-1,-1,-1,-1,-1,-1,-1,-1,-1,-1,-1,-1,-1,-1,-1,-1,-1,-1,-1,-1,-1,-1,-1,-1,-1,-1,-1,-1,-1,-1,-1,-1,-1],"split_conditions":[-2.4607773E-1,-6.0282785E-1,5.2450246E-1,-9.928746E-1,-2.3664527E-1,-5.917476E-3,2.1820869E-1,-6.1691064E-1,-7.4434316E-1,-3.9353445E-1,-2.6476353E-1,1.4418145E-1,-1.3892114E-2,-7.111576E-1,1.318866E0,-1.173628E0,-1.0309279E0,-3.0947763E-1,-7.4077123E-1,-9.8626107E-1,1.1968361E0,5.21548E-1,1.0590031E0,4.1610917E-1,8.2587314E-1,-7.496966E-1,2.699093E0,9.582849E-1,1.0529481E0,1.4051973E0,1.6124628E0,4.509367E-1,-1.0997317E0,4.6715692E-1,1.2613442E0,-5.502109E-1,-8.454179E-1,-1.0851237E0,-2.24469E-2,-1.0734288E0,-4.9774703E-1,5.6157783E-2,-2.8741506E-1,-9.539116E-1,8.8995975E-1,-1.3892114E-2,-1.3089458E0,-6.6124845E-1,-3.1655967E-2,-1.086923E0,8.5604864E-1,9.707838E-1,1.8691242E-1,1.9240405E-1,2.7682452E0,3.4405382E0,-6.22158E-1,1.860308E0,-1.5563847E0,2.8395134E-1,6.108799E-1,-6.8211114E-1,2.497141E0,-1.8561581E-1,-1.673318E-2,-1.4149173E-2,-6.451935E-2,-2.2802179E-1,-2.199404E-2,-4.425296E-1,-2.2414795E-1,3.1939687E-3,-7.696986E-2,1.3082627E-3,3.8669508E-2,7.757278E-2,-4.74088E-2,-6.8382076E-3,-1.5552972E-1,-5.833408E-1,-1.8604672E-2,4.401463E-2,2.0321293E-2,6.1372925E-2,3.9580025E-2,-4.1047898E-1,-7.253732E-1,-7.702233E-2,-1.8309546E-4,-1.792333E-1,-5.7894713E-3,1.4507661E-2,7.572135E-2,-4.6067286E-1,-1.8284416E-2,2.2385472E-2,4.9259137E-2,-6.005607E-2,3.0260822E-2,-1.3914872E0,7.415127E-2,2.3447515E-2,6.10855E-2,7.136898E-2,9.073231E-2,7.218602E-2,8.510894E-3,8.4540844E-2,6.663024E-2,-9.3307954E-1,-4.4179377E-1,4.1916065E-2,-1.1338314E0,-1.0649588E0,7.197926E-2,7.315807E-2,-1.1430018E0,-1.6061356E0,8.4424324E-2,8.7434344E-2,9.393722E-2,8.387878E-2,6.0146987E-2,8.5847765E-2,9.4860956E-2,9.8910086E-2,1.0234282E-1],"split_indices":[2,2,2,2,0,10,10,3,0,2,3,3,7,10,2,2,2,7,2,7,3,4,5,0,5,7,4,3,3,9,10,7,0,7,4,7,2,7,1,10,0,9,0,3,8,7,9,10,7,4,3,10,9,8,3,0,9,5,5,7,1,6,10,0,0,0,0,0,0,0,0,0,0,0,0,0,0,0,0,0,0,0,0,0,0,0,0,0,0,0,0,0,0,0,0,0,0,0,0,0,0,0,0,0,0,0,0,0,0,0,0,0,0,0,0,0,0,0,0,0,0,0,0,0,0,0,0],"split_type":[0,0,0,0,0,0,0,0,0,0,0,0,0,0,0,0,0,0,0,0,0,0,0,0,0,0,0,0,0,0,0,0,0,0,0,0,0,0,0,0,0,0,0,0,0,0,0,0,0,0,0,0,0,0,0,0,0,0,0,0,0,0,0,0,0,0,0,0,0,0,0,0,0,0,0,0,0,0,0,0,0,0,0,0,0,0,0,0,0,0,0,0,0,0,0,0,0,0,0,0,0,0,0,0,0,0,0,0,0,0,0,0,0,0,0,0,0,0,0,0,0,0,0,0,0,0,0],"sum_hessian":[5.5817725E6,1.1744132E6,4.407359E6,5.3179475E5,6.4261844E5,1.4517906E6,2.9555685E6,6.1181246E4,4.7061353E5,4.7483456E5,1.6778389E5,5.487492E5,9.030415E5,7.207045E5,2.234864E6,5.892389E4,2.2573518E3,2.8185562E5,1.887579E5,2.9563484E5,1.791997E5,8.080713E4,8.697676E4,1.9317669E5,3.5557247E5,5.237375E5,3.7930397E5,1.760676E5,5.4463694E5,8.306761E5,1.4041879E6,5.519851E3,5.3404043E4,1.5978191E3,6.595328E2,1.2314138E5,1.5871425E5,6.560803E4,1.2314988E5,1.2807223E4,2.8282762E5,1.7912338E5,7.633904E1,7.190144E4,8.905689E3,5.8676832E4,2.8299922E4,1.5776239E5,3.541431E4,2.246101E5,1.3096238E5,3.432563E5,1.8048117E5,3.7927206E5,3.1918442E1,4.2420223E4,1.3364736E5,1.7823538E5,3.6640156E5,7.34077E5,9.659911E4,6.747452E5,7.294427E5,3.2872917E3,2.2325596E3,3.479149E4,1.8612553E4,7.7324994E2,8.2456915E2,3.5660382E2,3.0292896E2,1.0820837E5,1.4933017E4,6.031517E4,9.839907E4,2.1238772E3,6.3484152E4,1.2068377E5,2.4661055E3,1.5028825E2,1.2656935E4,1.8037755E5,1.02450086E5,1.2417309E5,5.4950277E4,6.606008E1,1.0278964E1,8.168101E3,6.373334E4,4.852587E3,4.053102E3,1.7874861E4,4.0801973E4,1.8403268E2,2.8115889E4,4.5645145E4,1.12117234E5,2.0183291E4,1.523102E4,7.793734E0,2.246023E5,6.1475426E4,6.948695E4,1.6911288E5,1.7414345E5,1.01359125E5,7.912205E4,3.1615497E5,6.3117082E4,2.451435E1,7.404092E0,4.2397027E4,2.3195238E1,9.811485E0,1.3363755E5,1.7820347E5,3.1917246E1,6.2492595E0,3.663953E5,4.084898E5,3.2558722E5,7.6937984E4,1.9661123E4,1.0406249E5,5.706827E5,3.674991E5,3.619436E5],"tree_param":{"num_deleted":"0","num_feature":"14","num_nodes":"127","size_leaf_vector":"1"}},{"base_weights":[6.496907E-1,2.063184E-1,8.191853E-1,-1.1624149E-2,3.7935323E-1,6.6708374E-1,8.921191E-1,1.9142205E-2,-4.6610066E-1,4.4495186E-1,6.9151245E-2,5.623459E-1,7.551499E-1,7.863653E-1,9.412168E-1,7.197699E-2,-2.080592E-1,-1.4714967E0,-3.236279E-1,3.5224518E-1,5.712508E-1,-3.525982E-1,2.7885422E-1,5.969514E-1,3.3974627E-1,6.3560367E-1,7.977175E-1,7.9024976E-1,-7.728207E-2,8.992671E-1,9.781296E-1,-8.0269694E-2,2.008545E-1,-1.478085E-1,-8.374571E-1,-1.6955732E0,9.841616E-1,-1.7508976E-1,-9.57199E-1,4.0754756E-1,1.14125945E-1,3.7717503E-1,6.022916E-1,-4.723455E0,-3.2239443E-1,-2.6876017E-2,4.912107E-1,4.0933326E-1,6.293878E-1,-8.58028E0,3.462856E-1,-1.3460933E1,6.365228E-1,7.980111E-1,-1.0233845E1,7.2266835E-1,8.2549316E-1,1.0993723E-1,-1.2332397E1,8.208841E-1,9.1355544E-1,9.2920214E-1,9.9570274E-1,-1.4955396E-3,-3.286485E-2,2.0275556E-2,-6.7205185E-1,-1.167054E-2,-1.3760802E-1,-7.01401E-2,-4.5050836E-1,-4.7005028E-2,-2.290881E-1,-2.422043E-1,1.21138394E-1,-6.379669E-3,-7.5159304E-2,-3.7422606E-1,-6.919897E-2,4.705962E-2,1.6435353E-2,1.1954247E-2,-1.2726145E0,3.8272824E-2,-6.457387E-1,6.5239854E-2,4.634921E-2,-5.0966746E-1,-3.1619427E-1,-1.9375442E-2,-7.904329E-2,1.188978E-2,-5.379763E-2,2.0941796E-2,6.75975E-2,1.4957786E-2,5.179158E-2,6.9055974E-2,4.6701577E-2,-9.004874E-1,-4.3147522E-1,1.0702674E-3,4.845624E-2,-3.6314806E-1,-1.4297928E0,7.5624384E-2,5.9313964E-2,7.647729E-2,8.545055E-2,-1.098329E0,-3.1530198E-1,7.236957E-2,-7.5561804E-1,9.136782E-2,7.9487674E-2,-1.5476488E-1,3.636114E-2,-5.239875E-1,-1.5773697E0,9.154724E-2,7.8041784E-2,9.1371916E-2,-4.2883974E-1,9.404019E-2,8.539112E-2,9.7167954E-2,1.01519905E-1],"categories":[],"categories_nodes":[],"categories_segments":[],"categories_sizes":[],"default_left":[0,0,0,0,0,0,0,0,0,0,0,0,0,0,0,0,0,0,0,0,0,0,0,0,0,0,0,0,0,0,0,0,0,0,0,0,0,0,0,0,0,0,0,0,0,0,0,0,0,0,0,0,0,0,0,0,0,0,0,0,0,0,0,0,0,0,0,0,0,0,0,0,0,0,0,0,0,0,0,0,0,0,0,0,0,0,0,0,0,0,0,0,0,0,0,0,0,0,0,0,0,0,0,0,0,0,0,0,0,0,0,0,0,0,0,0,0,0,0,0,0,0,0,0,0,0,0],"id":11,"left_children":[1,3,5,7,9,11,13,15,17,19,21,23,25,27,29,31,33,35,37,39,41,43,45,47,49,51,53,55,57,59,61,63,65,67,69,71,73,75,77,79,81,83,85,87,89,91,93,95,97,99,101,103,105,107,109,111,113,115,117,119,121,123,125,-1,-1,-1,-1,-1,-1,-1,-1,-1,-1,-1,-1,-1,-1,-1,-1,-1,-1,-1,-1,-1,-1,-1,-1,-1,-1,-1,-1,-1,-1,-1,-1,-1,-1,-1,-1,-1,-1,-1,-1,-1,-1,-1,-1,-1,-1,-1,-1,-1,-1,-1,-1,-1,-1,-1,-1,-1,-1,-1,-1,-1,-1,-1,-1],"loss_changes":[3.9504375E5,5.4826004E4,4.2187E4,8.996664E3,1.649071E4,1.1368375E4,1.334575E4,7.2339976E3,5.843116E3,7.8322812E3,1.2511373E4,4.3365938E3,3.4067188E3,2.73425E3,2.717125E3,9.593338E3,4.311498E3,2.7877285E3,3.3626604E3,5.080074E3,1.7056484E3,6.2005654E3,6.134281E3,2.9649062E3,4.421505E3,2.2866406E3,1.6075625E3,1.9319062E3,8.376322E3,9.195E2,8.02E2,3.63619E3,3.4853916E3,3.964025E3,4.95341E3,3.3842422E3,3.3110577E2,1.8572758E3,5.0098716E3,4.800207E3,5.058498E3,1.4844751E3,1.6975E3,1.7174072E2,2.8090771E3,2.8855442E3,2.902833E3,2.0256738E3,4.1258594E3,6.171826E1,3.5124746E3,4.2760742E1,9.1266406E2,9.2646875E2,3.549402E1,2.3705625E3,1.439E3,1.5127397E3,1.258127E3,4.8423438E2,5.955625E2,2.0728125E2,3.2075E2,0E0,0E0,0E0,0E0,0E0,0E0,0E0,0E0,0E0,0E0,0E0,0E0,0E0,0E0,0E0,0E0,0E0,0E0,0E0,0E0,0E0,0E0,0E0,0E0,0E0,0E0,0E0,0E0,0E0,0E0,0E0,0E0,0E0,0E0,0E0,0E0,0E0,0E0,0E0,0E0,0E0,0E0,0E0,0E0,0E0,0E0,0E0,0E0,0E0,0E0,0E0,0E0,0E0,0E0,0E0,0E0,0E0,0E0,0E0,0E0,0E0,0E0,0E0,0E0],"parents":[2147483647,0,0,1,1,2,2,3,3,4,4,5,5,6,6,7,7,8,8,9,9,10,10,11,11,12,12,13,13,14,14,15,15,16,16,17,17,18,18,19,19,20,20,21,21,22,22,23,23,24,24,25,25,26,26,27,27,28,28,29,29,30,30,31,31,32,32,33,33,34,34,35,35,36,36,37,37,38,38,39,39,40,40,41,41,42,42,43,43,44,44,45,45,46,46,47,47,48,48,49,49,50,50,51,51,52,52,53,53,54,54,55,55,56,56,57,57,58,58,59,59,60,60,61,61,62,62],"right_children":[2,4,6,8,10,12,14,16,18,20,22,24,26,28,30,32,34,36,38,40,42,44,46,48,50,52,54,56,58,60,62,64,66,68,70,72,74,76,78,80,82,84,86,88,90,92,94,96,98,100,102,104,106,108,110,112,114,116,118,120,122,124,126,-1,-1,-1,-1,-1,-1,-1,-1,-1,-1,-1,-1,-1,-1,-1,-1,-1,-1,-1,-1,-1,-1,-1,-1,-1,-1,-1,-1,-1,-1,-1,-1,-1,-1,-1,-1,-1,-1,-1,-1,-1,-1,-1,-1,-1,-1,-1,-1,-1,-1,-1,-1,-1,-1,-1,-1,-1,-1,-1,-1,-1,-1,-1,-1],"split_conditions":[-8.4351026E-2,-5.409911E-1,2.7181557E-1,1.2136269E0,-1.9060446E-2,5.958525E-1,7.908759E-1,-5.195055E-1,4.8807305E-1,-2.9364443E-1,-3.773183E-1,7.497392E-1,-6.493178E-1,4.043028E0,1.4053191E0,-7.835812E-1,1.409513E0,1.670768E0,-7.878601E-1,1.1705645E-1,-5.7972676E-1,-1.1874548E0,-3.0360934E-1,-6.5083903E-1,1.3066751E-2,1.2288672E-3,4.262028E-1,2.391024E-1,-9.34742E-2,-7.2420824E-1,1.5281594E0,-8.023658E-1,3.7758512E0,4.0698183E-1,-9.57864E-1,-8.2149476E-1,1.4328115E-1,1.3652812E0,1.2687883E0,7.384672E-1,1.4920242E-1,9.42425E-1,2.6775748E-1,1.1158806E0,3.145696E-1,2.7105263E-1,-7.725259E-2,-3.1407148E-1,2.1374367E-1,1.177656E0,6.7598826E-1,-8.0691034E-1,-2.0384004E0,1.5566994E0,6.665127E-1,2.2036638E0,-9.34742E-2,1.2969904E-1,3.6277577E-1,1.5667458E0,2.57019E0,1.0253466E0,2.2708516E0,-1.4955396E-3,-3.286485E-2,2.0275556E-2,-6.7205185E-1,-1.167054E-2,-1.3760802E-1,-7.01401E-2,-4.5050836E-1,-4.7005028E-2,-2.290881E-1,-2.422043E-1,1.21138394E-1,-6.379669E-3,-7.5159304E-2,-3.7422606E-1,-6.919897E-2,4.705962E-2,1.6435353E-2,1.1954247E-2,-1.2726145E0,3.8272824E-2,-6.457387E-1,6.5239854E-2,4.634921E-2,-5.0966746E-1,-3.1619427E-1,-1.9375442E-2,-7.904329E-2,1.188978E-2,-5.379763E-2,2.0941796E-2,6.75975E-2,1.4957786E-2,5.179158E-2,6.9055974E-2,4.6701577E-2,-9.004874E-1,-4.3147522E-1,1.0702674E-3,4.845624E-2,-3.6314806E-1,-1.4297928E0,7.5624384E-2,5.9313964E-2,7.647729E-2,8.545055E-2,-1.098329E0,-3.1530198E-1,7.236957E-2,-7.5561804E-1,9.136782E-2,7.9487674E-2,-1.5476488E-1,3.636114E-2,-5.239875E-1,-1.5773697E0,9.154724E-2,7.8041784E-2,9.1371916E-2,-4.2883974E-1,9.404019E-2,8.539112E-2,9.7167954E-2,1.01519905E-1],"split_indices":[2,2,10,8,0,2,2,0,4,2,9,0,10,10,10,2,6,10,0,9,10,9,4,6,1,1,8,2,1,6,2,0,10,9,9,10,4,8,6,8,1,8,9,8,0,0,9,10,8,0,1,9,8,2,8,4,1,2,2,9,6,0,10,0,0,0,0,0,0,0,0,0,0,0,0,0,0,0,0,0,0,0,0,0,0,0,0,0,0,0,0,0,0,0,0,0,0,0,0,0,0,0,0,0,0,0,0,0,0,0,0,0,0,0,0,0,0,0,0,0,0,0,0,0,0,0,0],"split_type":[0,0,0,0,0,0,0,0,0,0,0,0,0,0,0,0,0,0,0,0,0,0,0,0,0,0,0,0,0,0,0,0,0,0,0,0,0,0,0,0,0,0,0,0,0,0,0,0,0,0,0,0,0,0,0,0,0,0,0,0,0,0,0,0,0,0,0,0,0,0,0,0,0,0,0,0,0,0,0,0,0,0,0,0,0,0,0,0,0,0,0,0,0,0,0,0,0,0,0,0,0,0,0,0,0,0,0,0,0,0,0,0,0,0,0,0,0,0,0,0,0,0,0,0,0,0,0],"sum_hessian":[5.2567925E6,1.4538202E6,3.802972E6,6.434175E5,8.1040275E5,1.2325431E6,2.5704288E6,6.026231E5,4.0794367E4,6.689409E5,1.4146186E5,5.6298644E5,6.695567E5,8.149937E5,1.7554351E6,4.8892603E5,1.1369712E5,5.0622144E3,3.5732152E4,3.857755E5,2.831654E5,4.697873E4,9.448313E4,4.8723834E5,7.574806E4,1.758153E5,4.937414E5,8.113445E5,3.6491868E3,8.2167044E5,9.3376475E5,2.2414156E5,2.6478447E5,1.0376517E5,9.931947E3,4.639201E3,4.2301318E2,2.894694E4,6.7852134E3,3.1306622E5,7.270928E4,3.9046824E4,2.4411858E5,3.2134085E2,4.665739E4,3.8727664E4,5.575547E4,7.1821695E4,4.1541666E5,5.4530445E1,7.569354E4,1.0508588E1,1.758048E5,4.937292E5,1.2214377E1,2.7809697E5,5.332475E5,3.5952537E3,5.393305E1,1.2669677E5,6.949736E5,2.4676656E5,6.869982E5,1.774737E5,4.6667867E4,2.6471272E5,7.1736565E1,1.0120352E5,2.5616475E3,9.577834E3,3.541129E2,1.5173389E3,3.1218623E3,2.5849768E1,3.9716342E2,2.4263934E4,4.6830044E3,5.888081E2,6.1964053E3,2.48612E5,6.4454207E4,7.267961E4,2.9668406E1,3.9016066E4,3.0757114E1,1.7936402E5,6.475457E4,2.5752536E2,6.3815487E1,3.659947E4,1.0057922E4,3.01338E4,8.593865E3,2.2080934E4,3.3674535E4,2.117305E4,5.0648645E4,3.0173716E5,1.1367949E5,4.858334E1,5.9471045E0,2.208841E4,5.3605125E4,1.243536E0,9.265052E0,4.6756973E4,1.2904782E5,3.1085403E5,1.8287517E5,1.0546944E1,1.6674339E0,2.7806338E5,3.3590347E1,1.3741644E5,3.958311E5,4.7650714E2,3.1187466E3,1.8443539E1,3.548951E1,3.7955566E4,8.874121E4,6.949526E5,2.1039785E1,2.1480258E5,3.1963984E4,3.0779047E5,3.7920772E5],"tree_param":{"num_deleted":"0","num_feature":"14","num_nodes":"127","size_leaf_vector":"1"}},{"base_weights":[6.2199116E-1,1.8840805E-1,7.9708207E-1,-8.5205466E-2,3.2612133E-1,6.577261E-1,8.779647E-1,-1.9153577E-1,5.6410518E-2,3.750853E-1,6.651944E-2,7.0745647E-1,5.236195E-1,8.2427317E-1,9.205771E-1,-5.512307E-1,-1.0171521E-1,1.9967426E-1,-2.0769203E-1,2.6710063E-1,5.3415644E-1,1.5932602E-1,-3.446465E-1,6.363241E-1,7.8053147E-1,1.97426E-1,6.1310077E-1,8.536708E-1,6.751745E-1,9.36064E-1,8.151575E-1,-4.0361488E-1,-1.0465219E0,-7.0759036E-2,-9.3383497E-1,3.200266E-2,4.05899E-1,-1.9680962E-1,-4.8651385E0,3.505703E-1,-8.359489E-2,3.8430226E-1,6.673225E-1,-2.9751074E0,1.6608411E-1,1.5524273E-1,-5.954168E-1,6.370317E-1,-6.8473873E0,7.808902E-1,-1.1879433E0,3.0978364E-1,-6.171891E-1,-7.113837E0,6.155447E-1,8.611778E-1,7.156612E-1,5.449093E-1,8.2876104E-1,9.3705827E-1,7.23956E-2,-5.598477E0,8.1648153E-1,-3.499786E-2,-1.2887207E-1,-9.206418E-2,-3.3499634E-1,-3.2185506E-2,-1.5338662E-4,-8.184973E-2,-4.4062886E-1,6.3445494E-3,-1.6538012E-1,5.504588E-2,2.0224009E-2,-4.227878E-2,2.6061854E-4,-5.855532E-1,-3.6435065E-1,2.412804E-2,5.27579E-2,-5.9578E-1,-6.350767E-3,5.872029E-2,1.3366078E-2,7.4825495E-2,2.9461045E-2,-2.6166442E-1,-4.6036163E-1,2.026408E-2,-2.837802E-2,-3.6823854E-1,2.1534834E-2,-4.2267725E-1,-5.266839E-2,7.2870545E-2,5.8461964E-2,-7.6888216E-1,-3.3203083E-1,8.507771E-2,7.457439E-2,-5.2199525E-1,3.181205E-2,-5.8257837E-2,-1.1266674E0,-7.8597075E-1,-3.0024195E-1,6.9071025E-2,4.4690233E-2,8.3682366E-2,8.9430325E-2,2.7350528E-2,7.513114E-2,5.8913674E-2,-2.5144393E-2,-8.6506015E-1,8.29988E-2,9.471048E-2,8.74869E-2,-1.2474854E0,5.6359448E-2,-1.1241106E0,-4.783496E-1,8.37054E-2,6.291359E-2],"categories":[],"categories_nodes":[],"categories_segments":[],"categories_sizes":[],"default_left":[0,0,0,0,0,0,0,0,0,0,0,0,0,0,0,0,0,0,0,0,0,0,0,0,0,0,0,0,0,0,0,0,0,0,0,0,0,0,0,0,0,0,0,0,0,0,0,0,0,0,0,0,0,0,0,0,0,0,0,0,0,0,0,0,0,0,0,0,0,0,0,0,0,0,0,0,0,0,0,0,0,0,0,0,0,0,0,0,0,0,0,0,0,0,0,0,0,0,0,0,0,0,0,0,0,0,0,0,0,0,0,0,0,0,0,0,0,0,0,0,0,0,0,0,0],"id":12,"left_children":[1,3,5,7,9,11,13,15,17,19,21,23,25,27,29,31,33,35,37,39,41,43,45,47,49,51,53,55,57,59,61,63,65,67,69,71,73,75,77,79,81,83,85,87,89,91,93,95,97,99,-1,101,103,105,107,109,111,113,115,117,119,121,123,-1,-1,-1,-1,-1,-1,-1,-1,-1,-1,-1,-1,-1,-1,-1,-1,-1,-1,-1,-1,-1,-1,-1,-1,-1,-1,-1,-1,-1,-1,-1,-1,-1,-1,-1,-1,-1,-1,-1,-1,-1,-1,-1,-1,-1,-1,-1,-1,-1,-1,-1,-1,-1,-1,-1,-1,-1,-1,-1,-1,-1,-1],"loss_changes":[3.7643975E5,5.3746805E4,3.981275E4,7.191153E3,1.2060711E4,8.6509375E3,5.11275E3,8.812333E3,7.748913E3,1.3711922E4,5.7454233E3,4.9183438E3,1.0242516E4,4.334125E3,2.033625E3,3.984379E3,5.6221655E3,4.591112E3,3.6495789E3,1.391875E4,6.441008E3,2.6025537E3,3.4758433E3,2.5434531E3,2.1293125E3,6.9144565E3,5.2045703E3,8.5525E2,3.2583125E3,9.329375E2,1.3600078E3,1.9929541E3,3.6252744E3,3.6577876E3,3.1316787E3,3.8819968E3,1.7528711E3,3.238193E3,1.8175464E2,7.4299062E3,1.0786283E4,7.723658E3,5.1550547E3,1.4226099E2,2.015873E3,2.1375093E3,4.606362E3,2.3033906E3,1.0925903E2,1.1458125E3,0E0,3.0621304E3,3.3684995E3,2.4365234E2,3.4892734E3,6.313125E2,6.7164453E2,3.1043125E3,8.764961E2,6.771875E2,7.7134917E3,9.831238E1,6.1453125E2,0E0,0E0,0E0,0E0,0E0,0E0,0E0,0E0,0E0,0E0,0E0,0E0,0E0,0E0,0E0,0E0,0E0,0E0,0E0,0E0,0E0,0E0,0E0,0E0,0E0,0E0,0E0,0E0,0E0,0E0,0E0,0E0,0E0,0E0,0E0,0E0,0E0,0E0,0E0,0E0,0E0,0E0,0E0,0E0,0E0,0E0,0E0,0E0,0E0,0E0,0E0,0E0,0E0,0E0,0E0,0E0,0E0,0E0,0E0,0E0,0E0,0E0],"parents":[2147483647,0,0,1,1,2,2,3,3,4,4,5,5,6,6,7,7,8,8,9,9,10,10,11,11,12,12,13,13,14,14,15,15,16,16,17,17,18,18,19,19,20,20,21,21,22,22,23,23,24,24,25,25,26,26,27,27,28,28,29,29,30,30,31,31,32,32,33,33,34,34,35,35,36,36,37,37,38,38,39,39,40,40,41,41,42,42,43,43,44,44,45,45,46,46,47,47,48,48,49,49,51,51,52,52,53,53,54,54,55,55,56,56,57,57,58,58,59,59,60,60,61,61,62,62],"right_children":[2,4,6,8,10,12,14,16,18,20,22,24,26,28,30,32,34,36,38,40,42,44,46,48,50,52,54,56,58,60,62,64,66,68,70,72,74,76,78,80,82,84,86,88,90,92,94,96,98,100,-1,102,104,106,108,110,112,114,116,118,120,122,124,-1,-1,-1,-1,-1,-1,-1,-1,-1,-1,-1,-1,-1,-1,-1,-1,-1,-1,-1,-1,-1,-1,-1,-1,-1,-1,-1,-1,-1,-1,-1,-1,-1,-1,-1,-1,-1,-1,-1,-1,-1,-1,-1,-1,-1,-1,-1,-1,-1,-1,-1,-1,-1,-1,-1,-1,-1,-1,-1,-1,-1,-1],"split_conditions":[-8.4351026E-2,-6.361245E-1,7.147692E-1,1.830393E-2,9.086789E-1,4.1610917E-1,1.5281594E0,-9.357946E-1,-8.241243E-1,-2.7612314E-1,5.3467825E-2,2.391024E-1,2.0476589E-1,1.2574371E0,6.9729143E-1,-4.9791887E-1,-3.0917352E-1,-8.5493124E-1,2.9384298E0,-1.64117E-1,-1.3892114E-2,-1.0851237E0,-6.304971E-1,8.390901E-1,2.5991902E0,4.0037894E-1,-8.8872355E-1,1.0169634E0,2.371316E-1,3.3477747E0,1.1135325E0,-7.878601E-1,-9.500646E-1,-8.981661E-1,1.7710087E-1,1.4655414E0,7.712736E-1,-7.3125786E-1,1.151481E0,-3.7450778E-1,-9.0580076E-1,-3.0358434E-1,1.1277703E0,-6.520699E-1,2.0259197E0,-1.0427277E0,-5.6654435E-1,-7.496966E-1,9.42425E-1,-7.496966E-1,-1.1879433E0,-7.7973133E-1,1.4342756E0,9.42425E-1,8.411603E-1,